837 784
-0.7066202676173324 -0.00178126105190785 -0.00178126546215557 -0.00178126139884669 -0.00178127620259991 -0.00014753011468017342 -0.000147475 -0.000147499 -0.00014749549727070566 -0.00014750260944707924 -0.00014750773473763776 -0.00014749382688044647 -0.00014750247452714808 -0.00014749825467133453 -0.00014752680733294966 -0.1313839339203158 0.159161762882659 0.4054331129320419 0.4199526407784445 0.4078073068063014 0.4066033254731243 0.3792577749148015 -0.00178130206145524 -0.00178126066099326 -0.00178124937533571 -0.00178127980577456 -0.00178123069406741 -0.00434788439090249 -0.00584084007082234 -0.00178127967439291 -0.00178128874122133 -0.00178127092548438 -0.00178126516845809 -0.00014752431353691836 -0.00014749356332338702 -0.00014750574286051416 -0.000147488 -0.00014749732219376173 -0.00014750319526523717 -0.000147511 -0.0001475171501364128 -0.0001475010657038368 -0.00014750053634394924 0.0822965140656345 0.169197091144138 0.406176428070335 -0.00178128257097337 0.4050623958763435 0.4055092656923035 -0.00178128074075764 -0.0017812421774898 -0.00178125909218187 -0.00178123027810721 -0.00178126181310473 -0.00178127874529171 -0.00623013325138013 -0.00456949535879605 -0.00178127142513135 -0.00178127262026205 -0.00178126260041609 -0.00178128215607568 -0.00014749171492001558 -0.000147504 -0.00014748877442477264 -0.00014752450545017456 -0.00014754224685315057 -0.00014752208188593258 -0.00014748242047261164 -0.00014751674064108973 -0.00178125527988947 -0.00178128010250241 -0.00178126775928883 -0.00178123804870346 -0.00178124281185946 -0.00178123532080058 0.4060884271169173 0.421227216911741 0.3789639581140555 -0.00178128450049112 -0.00178126472378901 -0.00178127126084533 -0.00178127456280499 -0.00178128244187656 -0.00547882356657966 -0.00546613565802815 -0.0017812213011884 -0.00178125321177837 -0.00178124539276076 -0.00178121890367046 -0.00014750284554956102 -0.00014751188395999658 -0.00014752012473557798 -0.00014751687306128452 -0.0001474865933408337 -0.0001475104842472964 -0.00014749854223507382 -0.00014750344899898017 -0.00178125183088741 -0.00178128465667428 -0.00178127468152866 -0.00178125377201748 -0.00178125132004885 -0.00178125022223637 0.4062700428791589 -0.00178124627411703 0.4086095201574099 -0.00178126802078914 -0.00178126134224282 -0.00178128086135235 -0.00178126570626898 -0.00178124974310453 -0.00453325480283767 -0.00579305029082821 -0.00014750825379283625 -0.00014748806957747175 -0.00014750411781878364 -0.0001474985666687952 -0.0001474825912898483 -0.00014750404241405216 -0.00014749253895611893 -0.00014748328207828376 -0.00014749246775620477 -0.00014750064598501378 -0.00014749013325535162 -0.00014747765520652342 -0.3990315200489463 -0.3994201823989721 -0.00178124894413813 -0.00178128919785927 -0.00178126592026502 -0.00178126959303553 -0.00178125057051085 -0.00178129279350529 -0.00178125799475209 -0.00178124594251507 -0.00178124535212214 -0.00178127756224544 -0.00178126978956808 -0.00178126252889958 -0.0061347586055533 -0.00592637735601714 -0.00014752778249266634 -0.000147503 -0.0001475085510257803 -0.00014750003296957456 -0.00014750412000564265 -0.00014753724791773042 -0.00014749304498028025 -0.00014750876057897648 -0.00014748955139700737 -0.00014748 -0.00014750042076635194 -0.00014749430651706788 -0.4002928943185667 -0.4028440673981964 -0.00178128571189359 -0.00178127713681931 -0.00178127750007149 -0.00178125325059213 -0.00178123405972391 -0.00178122859407797 -0.00178124660416381 -0.00178126023223212 -0.00178127693307451 -0.00178124071661295 -0.00178123193327525 -0.0017812651841264 -0.00524221363018577 -0.00523172 -0.00014752716538834579 -0.0001474865164569764 -0.00014752489103114433 -0.00014751588433607025 -0.000147472 -0.00014751875413627705 -0.0001474960299828142 -0.00014751856538373548 -0.4221223778950416 -0.4207330227435188 0.1951432641698514 0.1947049702814987 0.1974616801725323 0.2106769567500563 -0.00178126456653788 -0.00175907557928849 0.00407364055080467 0.00690971067540963 -0.00106335332609448 0.4212214908069439 -0.4162772892218767 -0.416636450372354 -0.00014751270653936305 -0.0001474903865710058 -0.0017812916811356 -0.00178124697911276 -0.00565235802084013 -0.00649141892826591 -0.00014748378021316018 -0.00014750265103578787 -0.00014750533662171087 -0.00014750884759826097 -0.0001474864732150937 -0.00014753012124867437 -0.000147484 -0.000147491 -0.4216934522727044 -0.4135114320145015 0.196923190348819 0.1983261054912022 0.2115245617970799 0.4161872316205765 0.00439460464222587 0.00942391862147749 0.0101723934967345 0.0101724108760616 0.7683676888884299 0.7388769300942971 0.00397131454574815 0.00231247130625576 -0.00014749675502903983 -0.00014752320336450413 -0.00178127896338855 -0.00178125571516053 -0.00607902705866633 -0.00475165219606233 -0.000147505 -0.00014751028432305672 -0.00014748903990019534 -0.0001475157468107219 -0.00178124005693119 -0.00178124840540393 -0.0017812620142876 -0.00178126552893008 -0.00178127480543996 -0.00178128820241109 0.4157181435289221 0.0993818895994478 0.1431540106595986 -0.1469294468186519 0.1801453772672562 0.1848491965433367 0.4148129821429299 0.3946696431440965 -0.2727365928784989 0.0118589399251521 0.0118595343197714 0.0103926488023344 -4.05859e-05 -0.00014749566118543606 -0.00178128 -0.00178121664714388 -0.00532747168154061 -0.00821616974922953 -0.00014750801750422842 -0.0001475195045707025 -0.00014750846709156608 -0.00014750515350242418 -0.00178127108272881 -0.00178126904454727 -0.00178125063454155 -0.00178124847544579 -0.00178126664283263 -0.00178128704639124 0.5190667626018739 -0.4625911664319588 0.0118596021206432 0.0118595646964139 0.011859566745166 0.0118588538684128 0.0118594805290569 0.0118595788300422 0.0118595628666115 0.0118595769278743 0.0118596067773628 0.0118587010955119 -0.2075891381500932 0.3116864769158811 -0.00178122505126759 -0.00178126376472365 -0.00509374057096622 -0.00680630262029444 -0.00014753952062754742 -0.0001475030612708314 -0.00014749826035785903 -0.00014749663168219836 -0.00178125331656303 -0.00178125863910721 -0.00178123629356031 0.4154494031561871 -0.0017812506913511 0.3347147239569405 -0.0575563586197713 -0.4189019709100835 0.0118596207328053 0.0118593897740673 0.0054160695742551 0.00365013053671819 0.010446 0.0118595592109668 0.0118595755611198 0.0118596063964342 0.0118586447738232 -0.5285586939349255 0.4200140792167308 0.4204422325160814 -0.0017812695505614 -0.0017812498127463 -0.0040957238704859 -0.00526546629945472 -0.00014749542072182848 -0.000147486 -0.000147497 -0.00014750052145031065 -0.00178125931012896 -0.0017812796173934 0.4185386826843092 0.4176069862658033 0.3229939877966855 0.1888753543607493 -0.2744118683084424 -0.4479438490531987 -0.5409579431787203 0.8426728441868613 0.00300341444870061 0.00808685574130587 0.0101723640578658 0.0101723908613424 0.0101723926961224 0.0101723926373934 0.00642808107724239 -0.00178127310381318 0.4214319482201261 0.4197863771998675 -0.00178128041587978 -0.00178127163662333 -0.00635759616710061 -0.00560252171854015 -0.00014750273543200578 0.3490830078288526 -0.0017812493283427 -0.00178123703662794 -0.00178126168807201 -0.00178127466561942 0.4177060965920066 0.3272066577521432 -0.0185800175896867 -0.2976687303833713 0.0118596158290386 -0.3467085119799612 0.00123765257409843 0.00979816746315884 0.010172415763598 0.0101724151148851 0.0101724026750853 0.0101723953737315 0.0101724012142735 0.00819395347107896 -0.00175901468382073 -0.00178122567403116 -0.4212661343905158 -0.00178125552954114 -0.00178127564791422 -0.00178123782098548 -0.00544467706637821 -0.00512501224743347 -0.0218573812307742 -0.0017812777701169 -0.00178124356883509 -0.00178127463847261 -0.00178126278444192 -0.00178125156555255 0.0556233386504781 0.1233843393613059 0.0118584617365332 0.0118595743942674 -0.1382153877582867 0.4435804019524281 0.0101723923735022 0.0101724233060409 0.0092101688412667 0.00343152298926016 0.00707024031738946 0.0101723835768223 0.0101724079045241 0.002949956694627 0.3597048929323486 0.3499167864684879 -0.4192701096572557 -0.4235214695998115 -0.00178127775238423 -0.00178128889688495 -0.00551127002277413 -0.00539790097344588 -0.00178128761967886 -0.00178125137152387 -0.00178124678373501 -0.00178127334510872 -0.00178127927558736 -0.00178125894740772 -0.0001475 1.28843e-05 0.0103925321155692 0.0118595633791374 0.0196296847296103 0.00969126758194537 0.00931703 0.00359203157246153 -0.0017803558524279 -0.0009563062130132646 0.00979821844224289 0.0101724085010622 0.70914520051702 0.5046444409184395 0.0888786744662764 0.0891544372631345 -0.00178124040169173 -0.00178126015649676 -0.00178126306477997 -0.00178127128111035 -0.00444038907978188 -0.00177377821276793 -0.00178125804628431 -0.00178129495772014 -0.00178123885239479 -0.00178125969107383 -0.00178125242005203 -0.00178127533695333 -0.00014747929653444425 -0.00014751562397106153 0.0007078648028338611 0.00477391747468669 0.4410324361218976 -0.00127750109437456 -0.00178123821633998 -0.00178125094489395 -0.00178065973663108 0.00583948044840576 0.4375045396028044 -0.5712384164532899 0.00188435574899169 -0.00014751075352484105 0.0880320725487432 0.0903752709158054 -0.00178125372274146 -0.00178128414633229 -0.00178125081651119 -0.00178125010374863 -0.00436671759049887 -0.0073190720264689 -0.00178122460135182 -0.00178126568135963 -0.00178128760080852 -0.00178124753772439 -0.00178122444529388 -0.00178124716864109 -0.4179002842696648 -0.414104904545848 -0.00014750889636345105 -0.00014752439979463984 0.2380896004138731 0.0690776823139722 0.0904008277770697 -0.3775979292168159 0.0049344808010114 0.0118595777428554 0.0118595496711004 0.00814522669798226 -0.00014746027701854707 -0.000147489669805396 -0.00178124269985092 -0.00178128303985041 -0.00178128534245705 -0.00178125522824914 -0.00178127201104716 -0.00178126111688415 -0.00488068183962002 -0.00606104294600371 -0.00178128133569332 -0.00178126429337556 -0.00178126396190116 -0.00178126650811694 -0.00178127883310733 -0.00178127278529218 -0.4162836289820522 -0.4159222091760445 -0.00014750532413223706 -0.4215931136343269 -0.2045411900941191 0.2105999693256632 -0.4174055383332358 0.0008148600710163263 0.0110882093571301 0.0118595746329905 0.0118582824637445 0.00017336978356818642 -0.000147409581444659 -0.00014748063838060423 0.4204773699876795 0.00370538919017625 -0.00178126664114529 -0.00178123342039452 -0.00178122743262269 -0.00178125588623553 -0.00654484241265679 -0.00610044778779734 -0.00178123863463367 -0.00178126645489567 -0.00178128703420406 -0.00178126712562833 -0.00178123927002021 -0.00178126132426897 -0.00178127324218037 -0.00178124756666057 -0.1672324349840028 -0.0001475102110550504 -0.00014752649104236588 -0.00014750178804723635 -0.000147496 0.0103925932579855 0.011859624923102 0.0118596294858537 0.00514877939880683 -0.00014742547524013936 -0.3122419734415069 -0.3127725068445536 0.3908359050053667 0.3599504040401464 -0.00178126544949987 -0.00178127081785273 -0.00178127707099118 -0.00178126130884505 -0.00745092378110205 -0.00351964632669514 -0.00178127302379014 -0.00178124104005301 -0.00178127107513442 -0.00178127866208502 -0.00178128897287473 -0.00178125796959282 -0.0017812552566642 -0.00178122301795874 -0.412326653321448 -0.00014750268016866343 -0.0001475012746396424 -0.00014752100321762494 0.0016703793836725 0.0118589742858113 0.0118595737622468 0.00942938731933839 0.1444073544707254 -0.1758596270603341 -0.3107886470594223 -0.3989257908719207 0.3737526595737473 -0.1874221235483738 -0.00178128559515742 -0.00178126299529846 -0.00178126561147494 -0.0017812445336831 -0.00493164438753858 -0.00586508786874581 0.4201267008033573 0.4189808215645534 0.4211517091571423 0.4202395960203663 -0.00178122536743967 -0.00178126824554537 -0.00178123154439162 -0.00178127122063238 0.380165174787617 0.3799365055122165 -0.0001474270334053994 0.00129594037779384 0.0117838100821861 0.0118595872853135 0.1272663334942219 0.3831822331626788 -0.00178125921726756 -0.00178125871351805 -0.0983846450728255 -0.3666400837576402 -0.2150637057663935 -0.2178544583549715 -0.1218024756969362 -0.1210518475281957 -0.0508100251529402 -0.1202288117593867 -0.00549013803440215 -0.00446542546501038 0.4198903047103423 0.4191056738065807 0.419894437208998 0.4209389759397589 -0.0017812376175922 -0.00178122625771012 -0.00178126826937374 0.1305901771067222 0.3807856979931741 0.3809975728282358 0.0491544956162572 -0.5582429424827232 0.0118597041142988 -0.1922502926503359 0.7893305853975321 -0.00178127826829394 -0.001781284563507 -0.0017812786049667 -0.2902166690864785 -0.000147491 -0.2188510672193903 -0.2746754128545048 -0.1195794720085233 -0.1195886062559415 -0.00178151747414914 -0.144128248634053 -0.00360477507396577 -0.0033277733680311 0.4009794305374292 0.4017573987648889 0.4005061351295857 0.4027726507250076 0.3976050289901671 0.4009067445349444 0.123961167569995 0.1260110800837689 0.3895027191827955 -0.0017815095120265 0.7886618163104241 0.3700237162178228 0.1484564781477658 0.3534346745415605 0.3560621531913954 0.0341766221257621 -0.2912200361049179 -0.3192697213282096 -0.1213153830387551 -0.1991258115459761 -0.2160602894099979 -0.2152258798206326 -0.1894048522044952 -0.1450831672060779 -0.1202584849926842 -0.1214389228670061 -0.00521062201653201 -0.00498963001051825 0.3996435454687168 0.414713954071285 0.400864304405484 0.4161354380596868 0.4036875077615888 0.3681451369821139 0.1255299057947964 0.0709394550066109 -0.00178127505029633 -0.00178068267137307 0.00637440947291209 0.00250367572311959 -0.4109657800141735 0.3179626043554886 -0.001224990980362 0.3305046096246548 -0.0402757273519451 0.2471120925985765 -0.2004013776303319 -0.3211670192554265 -0.2169390025659832 -0.2178424117831679 -0.1890296660993737 -0.1427513964388633 -0.1193235608756092 -0.120881964465787 -0.00518758698442706 -0.0028594627381916 0.4095941166765674 0.4116643886398432 0.4152807185848002 0.4109520728221593 0.2806638056607153 0.2815757519985755 0.1618242845762024 0.1424809427897962 -0.00178277326164281 0.00262762226960707 0.2496971701198632 0.0399892252382632 -0.6907609656826593 -0.6896486722134553 0.0636959067454832 0.0648127894490022 -0.3700265807170272 -0.3579079761964168 -0.1216483355280178 -0.1602704629321318 -0.2167790383874487 -0.2162714134175431 -0.1198564019298473 -0.1213124327149022 -0.1194499396394274 -0.118584470767889 -0.0051208862769275 -0.00484464289273978 0.4107862993841633 0.0547848740343342 0.4145662790155643 0.0418959745857327 0.28108857720631 0.3222443495866574 0.0900485923594351 0.0964817171729058 -0.00178275873267313 0.00246708836735026 0.3669760725505675 -0.3172461408124559 -0.6967601523823733 -0.1527245568428035 0.0653515542154837 0.0647760573503656 -0.3608430676615835 -0.2158589276846758 -0.1573799024736085 -0.0001474883964153212 -0.2147194377828987 -0.4212310896754815 -0.1217101033833861 -0.1202447702045301 -0.1202311901835759 -0.1125779822015918 -0.00599368554502218 -0.00549967604123354 -0.0058001920421002 -0.00428812988158125 -0.00443011958219073 -0.00410262473522895 -0.00776397350508481 -0.00430367103608519 -0.00413394313845421 -0.00476662097336381 -0.00517921750515511 -0.00531606715714506 -0.00527318657436399 -0.00400122854651542 -0.00351644475943341 -0.00520418427092174 -0.00456390191471259 -0.0068574525767902 -0.00429829088294533 -0.0044370373009348 -0.00442947475448179 -0.00400094562560551 -0.00585256725064507 -0.00364509117421887 -0.00783242515517646 -0.00359063861598809 -0.0042461372271629 -0.00673674942466572 -0.00449896962585423 -0.00316981030102038 -0.00615084763486434 -0.00604342825271211 -0.00459783295046233 -0.0053028777661696 -0.00231797754629643 -0.00480677854688503 -0.00646101077335078 -0.0048501628393539 -0.00399654651576703 -0.0038578822177785 -0.00441479801277721 -0.00420303697169439 -0.00282073403630462 -0.00401335348503829 -0.00606057154050338 -0.00432577836608572 -0.00429452450628601 -0.0042674936628742 -0.0043467082390135 -0.00639635392442903 -0.0051249207102249 -0.00438324323520401 -0.00496210952543067 -0.00737593590044686 -0.0075355992719114 -0.0044492885153469 -0.00537609798045528 -0.00416108238447079
-0.475446155751323 -0.0100119985969244 -0.0100120613676445 -0.0100121402960712 -0.0100120266037145 -0.0008209555919388246 -0.0008209013195022482 -0.0008209134706099943 -0.0008209092957737633 -0.0008208996970996285 -0.0008209276823854572 -0.0008209136191858192 -0.0008209008784760715 -0.0008208675161465367 -0.0008209455617630727 0.0719200422214517 0.0571132112245109 0.3632994656934468 0.3731213179867127 0.363821834381218 0.3702742354866246 0.3380201956117215 -0.0100121047235748 -0.010012038902066 -0.0100120883626693 -0.0100120984252966 -0.0100120006418621 0.2620971998382525 0.2506939125699443 -0.0100121151864641 -0.0100120881867977 -0.0100120763786007 -0.0100120356999894 -0.0008209210352336547 -0.0008209010165698161 -0.000820968310890175 -0.0008208535096039467 -0.0008209244356298819 -0.000820907890331175 -0.0008209465568630895 -0.0008209430790282322 -0.0008209296692686513 -0.000820908579917413 0.0626277981423108 0.0817889070219745 0.3672966338092913 -0.0100120418910574 0.366889192342773 0.3657970090051706 -0.0100121176404676 -0.0100120323500024 -0.0100121055243791 -0.0100120755112862 -0.0100120312059568 -0.0100120506222045 0.2631705191696126 0.2585610631218871 -0.0100120638557365 -0.0100119869441175 -0.0100120945377356 -0.0100120363294421 -0.0008209496807829108 -0.000820880564702519 -0.0008209431502442341 -0.0008209030723371437 -0.0008209540973691853 -0.000820955 -0.000820915782567488 -0.0008209257737519968 -0.0100120330257733 -0.0100120528922346 -0.0100120100727907 -0.010012081999477 -0.0100121026797754 -0.0100120115281486 0.3725599566720626 0.3713049132081183 0.3436977741198726 -0.0100120589910074 -0.0100121094647585 -0.0100120451634715 -0.0100120762909484 -0.0100121159945126 0.2588584585817459 0.2554651977797358 -0.0100121162765679 -0.010012113818546 -0.0100121099886981 -0.0100119726386117 -0.0008209042218873428 -0.0008209184972631575 -0.0008209507475404177 -0.0008209455778495515 -0.0008209051588181985 -0.0008209158575271041 -0.0008209266281138063 -0.0008209346485170786 -0.0100120868800996 -0.0100121286902196 -0.010012035463683 -0.0100120223706707 -0.0100120401581198 -0.0100121085979969 0.3664064930928827 -0.0100120879231605 0.3664254400568402 -0.0100120571761256 -0.0100121096326239 -0.0100121245806464 -0.0100120648325445 -0.0100120786837144 0.2557763510534345 0.2508271923003026 -0.00082095841576625 -0.0008209455521691179 -0.0008209388208465073 -0.0008209644322441191 -0.0008209220277532822 -0.0008209042842683811 -0.0008209271438644949 -0.0008209416612247502 -0.0008209268806795497 -0.0008209412852753788 -0.0008209381130626538 -0.000820879 -0.3643230719515534 -0.3661990666068731 -0.0100120219593432 -0.0100120745832586 -0.010012012035819 -0.0100121380102904 -0.0100120746453793 -0.0100120433495007 -0.0100121201706795 -0.0100121246324554 -0.010012086858366 -0.0100120710781837 -0.0100120519471284 -0.0100121256645863 0.2534674347979254 0.250554939305124 -0.0008209094306976115 -0.000820906284387723 -0.0008208891451023154 -0.0008208858121018459 -0.0008209521505472789 -0.0008209572892951666 -0.000820877 -0.0008208948607219982 -0.0008209320860864852 -0.0008208986297181787 -0.0008209232145466573 -0.000820902 -0.3609158480781275 -0.3630406616611201 -0.0100120433361947 -0.0100120357261204 -0.0100120567709241 -0.0100119893902663 -0.0100120840185216 -0.0100120024133163 -0.0100121264364224 -0.0100120982810489 -0.0100120218954507 -0.0100121334490172 -0.0100120416242814 -0.0100120350098235 0.2521874330110608 0.2568689783823801 -0.0008209996251766816 -0.0008209641296786652 -0.0008209632651444218 -0.000820921293680921 -0.00082091655466568 -0.0008209291492551531 -0.0008208812115698767 -0.0008209066545937707 -0.3828257928795835 -0.3893129327902692 0.2984976449021902 0.3056463212603644 0.2938564768843262 0.3284365546811923 -0.0100121214052393 -0.00989080331700866 0.0228572543407552 0.0387806996723659 -0.00598501851947933 0.3751898214324384 -0.3820285923296023 -0.3710571346234698 -0.0008209495715511241 -0.000820934896759408 -0.0100121317034538 -0.0100121203459641 0.2549879134732927 0.2526586618225766 -0.000820884846159529 -0.0008209320588491305 -0.0008209153919467841 -0.000820934711309555 -0.0008209270017413316 -0.0008209446586150245 -0.0008209050578335002 -0.0008209462177843472 -0.3815061516299922 -0.3738137467289124 0.2985895228117728 0.3017621174947859 0.3206633744645357 0.690248129146511 0.0246598638832684 0.0529008991202103 0.0571065123802451 0.05710656193168 0.7547528449091205 0.5926020362763805 0.0223118572804481 0.0129982207446908 -0.0008209008446449178 -0.000820951 -0.0100120399303682 -0.0100120145707737 0.2542437742743088 0.2541242162520135 -0.0008209028042410105 -0.0008209122666892589 -0.000820914164879136 -0.0008209337833661307 -0.0100120644881325 -0.0100120569541386 -0.0100121719273524 -0.0100121553107434 -0.0100120793361106 -0.0100120821619235 0.3593071277542089 0.2536765652290681 0.4482163656788848 0.2615064828484311 0.3421127978494577 0.3695583939068744 0.4222005817643826 0.39583825231141 -0.0400897017951976 0.0665975548622743 0.066597999754621 0.0583648384684219 -0.000220147 -0.0008208836142598561 -0.0100120390659391 -0.0100120891215612 0.2562404532085002 0.2560030370658348 -0.000820917245386817 -0.0008209376664453291 -0.0008208922299919577 -0.0008208908624781818 -0.0100120462925779 -0.0100121639504711 -0.0100120523877986 -0.010012069468511 -0.0100120536063277 -0.0100120398524395 0.2098890423620958 -0.3086774339012995 0.0665979474950371 0.0665979720534394 0.0665980032101277 0.0665973548926854 0.0665979961358192 0.0665980639538473 0.0665979112688856 0.0665980351237051 0.0665980568800658 0.0665974062878706 -0.1288157511173747 0.2259742437726649 -0.0100120294988126 -0.0100120980100222 0.253232296216826 0.2542003544083566 -0.0008209544141759742 -0.0008209225963408621 -0.0008209313913483637 -0.0008209606752907656 -0.0100120396276799 -0.0100121138113096 -0.0100120784808472 0.3540110902357856 -0.0100121067337871 0.1611019688208901 -0.1843815254906677 -0.3271511412056191 0.0665979996535004 0.0665978460668654 0.030423739029712 0.0205091635041466 0.0586651956266927 0.066598035700651 0.0665980349223876 0.066598024892297 0.066597171048664 -0.1708521383773553 0.3682174967460607 0.3668371847513644 -0.0100120824396354 -0.0100120413753726 0.256698447314723 0.2583149465874669 -0.0008209106546081314 -0.0008209214843380301 -0.0008209290653222194 -0.0008209213699050949 -0.0100119556232183 -0.0100120139500484 0.3586884149542888 0.3545995887806625 0.1106401866728313 -0.0553153874670166 -0.2386099496490773 -0.3532019173036581 -0.4175479743664212 0.7535944504797147 0.0168485194160672 0.0453904006307724 0.0571065102973674 0.057106455426597 0.0571065098412667 0.0571065292051541 0.0360767350701186 -0.0100120013864935 0.3726683169241717 0.3747734168650872 -0.0100120658331197 -0.0100120641826998 0.2529633089695805 0.2571752645423511 -0.0008209303124822144 0.130065511955825 -0.0100120966088016 -0.0100120894787357 -0.0100119820838501 -0.0100120462390317 0.3598210374735116 0.1337077091385383 -0.1270939880012713 -0.2623875311501968 0.0665980913464109 -0.5099451623294101 0.00693397240027222 0.0550036671536052 0.05710654911245 0.0571065653101115 0.0571065124428475 0.0571065488359602 0.0571064930573453 0.0459913237220476 -0.00989071131886142 -0.0100120389182077 -0.3856270905431101 -0.0100120379214463 -0.0100120503931247 -0.0100120278311718 0.2603591561888378 0.2578529507735112 -0.345766770702259 -0.010012069793964 -0.0100120085493393 -0.0100121662684414 -0.010012028481667 -0.0100121215076145 -0.0462384851252488 0.0390700490108627 0.0665972136524498 0.0665980000201178 -0.2448223408442652 0.4549105782440413 0.0571065271448848 0.057106550053564 0.0516993649996256 0.0192519238051319 0.0396820398312342 0.0571064795862429 0.0571065144215867 0.0165481328424209 0.3219739019323937 0.3078528109927212 -0.381509458905009 -0.3834172547892719 -0.0100120702528342 -0.0100121648459273 0.2590190316881187 0.256513468786872 -0.0100119789277729 -0.010011950234879 -0.0100121208557004 -0.01001203709255 -0.0100120455794999 -0.0100120746885129 -0.000821 8.03102e-05 0.0583647346817109 0.0665979729509913 0.1766430456150674 0.0544029147238652 0.0523001343126796 0.0201533017669256 -0.010011400907419 -0.00538407236215053 0.055003736824518 0.0571065225519667 0.6788257334159948 0.4433198654140106 0.0296128525882122 0.0369737499732392 -0.010012051238954 -0.0100119834427062 -0.0100121259048981 -0.01001214720771 0.2540070349137187 0.2528390148855207 -0.010012009260207 -0.0100120899968793 -0.010012040368373 -0.0100119796898967 -0.0100121675103613 -0.0100120753842802 -0.0008209075880752787 -0.000820960007948628 0.00398549113434192 0.0268184586713053 0.2569545199190885 -0.00718680724957861 -0.0100121814115951 -0.0100120497573396 -0.0100116246628433 0.0327718234795915 0.441322756905985 -0.46338539138324 0.0105946485866792 -0.0008209218622032564 0.0353760206955646 0.0427254458802451 -0.0100120020545408 -0.0100120129093799 -0.0100120860710794 -0.01001206754417 0.2500585162057626 0.2600908596440264 -0.0100120841736238 -0.010012099716832 -0.0100120330611028 -0.0100120040492863 -0.0100120791074698 -0.0100120196050297 -0.37888650309597 -0.3830747330034282 -0.000820885 -0.000820955 0.1878887139225454 0.0522757655996097 0.0726826512855015 -0.3484567655587248 0.0277197934344623 0.0665980757801988 0.0665980276837639 0.0457463047733639 -0.0008209177300193752 -0.0008208760215380039 -0.0100120076946833 -0.0100120196912529 -0.0100120500326582 -0.0100120744706702 -0.0100120004806314 -0.010012058064472 0.2529799194601205 0.2561240975343966 -0.0100120476260628 -0.0100121106824881 -0.0100121184646514 -0.0100120318629958 -0.0100120784582628 -0.0100119970232711 -0.3840235672358357 -0.3831522505798394 -0.0008209365823816616 -0.3800261942767281 -0.1746185635910764 0.2919777937861266 -0.3832162584799669 0.00458634149605138 0.062270554558507 0.0665980968883074 0.0665969445257897 0.0009815322495005448 -0.0008208467339128853 -0.0008208733809662999 0.3729055464090796 0.2301611464521984 -0.0100120736297476 -0.0100120462205004 -0.0100120132265218 -0.010012024973758 0.2553985878790947 0.2519884501536858 -0.0100120541075374 -0.0100120280111943 -0.0100120239288149 -0.0100120797342678 -0.0100120204184429 -0.0100120298824347 -0.0100121421683728 -0.0100119383966412 -0.1098725421922351 -0.0008207475436985035 -0.0008209187901602133 -0.0008209440441239826 -0.0008209220175726777 0.0583647620901768 0.0665979884809363 0.0665980992657496 0.0289217780166291 -0.0008208425105648237 -0.2833704513833986 -0.2808964417407972 0.3257438818920539 0.3145205948214312 -0.0100119383793714 -0.0100120655455113 -0.010012091263157 -0.0100120820528172 0.2564837019633012 0.2582642838636126 -0.0100120451397815 -0.0100120742289976 -0.0100121989016961 -0.0100120959798485 -0.0100120815894627 -0.010012077578065 -0.0100120606336633 -0.010011959239717 -0.3431876514681939 -0.000820753 -0.0008209503298438373 -0.000820911 0.00939291550008423 0.0665975714344162 0.0665980283386814 0.0529568985546008 0.0792099190098867 -0.148155764230793 -0.279935992279884 -0.3649259352194711 0.3208360396096638 -0.1601478172627526 -0.0100121475687571 -0.0100120922172862 -0.0100121472240655 -0.0100120451868104 0.2565348860029067 0.2513081686756758 0.3808096049026942 0.3744539759168887 0.3682619563254892 0.3705527913132164 -0.0100118952456183 -0.0100121005424362 -0.0100122099446064 -0.0100121034130903 0.3614726614236202 0.3531044958308339 -0.0008209328591151125 0.00728997134586179 0.0661763456845503 0.0665980495899951 0.1045610120938178 0.2713985322093215 -0.0100120156266351 -0.0100120974025564 -0.0600225347866654 -0.3431353694025547 -0.1990363336692281 -0.1944176914662507 -0.0758977950063525 -0.0731966273542953 0.1421740549468387 -0.0737671074044598 0.2515927604542589 0.2546810854134008 0.3782832323569646 0.3787569451845008 0.3718833280379474 0.3684247192953949 -0.0100119902143642 -0.010012121885431 -0.0100121015219654 0.1502129809144985 0.3584822472387016 0.3607140217906072 -0.0494197718409779 -0.6869696591160072 0.0665979991475852 -0.1915820114873118 0.7566151431975591 -0.010012017357206 -0.0100121369562683 -0.0100121070396599 -0.2842655272384422 -0.0008208383063542412 -0.1947441589414714 -0.2550476954228524 -0.0751148862947957 -0.0751014654389684 -0.0100119948643421 -0.1096299300512599 0.2697291644194775 0.2522304913696998 0.3612081068610067 0.3626928999107069 0.3619945618272584 0.3580090788217681 0.3510531249692928 0.3561116498662695 0.1177250813682655 0.0868064325826022 0.3583652047510868 -0.0100121072992945 0.7359957769065124 0.333769141089316 0.2104179244185259 0.3833582444842158 0.3187022295148535 0.0145200506643633 -0.3046019802423137 -0.2910724628016734 -0.0793602681259747 -0.1799418485519119 -0.1918407732362091 -0.1914075360775351 -0.1604449106677531 -0.1068722524763168 -0.0752803203735932 -0.0712223826305625 0.256054993823138 0.2507610388805108 0.3574298345226189 0.3683331310527786 0.3620979002980925 0.3705057474959078 0.3549567357106979 0.3543266026459389 0.0885496196828585 0.0930734537919127 -0.0100120841669357 -0.01001157258647 0.0357763262652678 0.0592517419928921 -0.325044377833111 0.5137835944451976 -0.00688664235236711 0.3423844900251296 0.000445326 0.3071287808796332 -0.1771925826887216 -0.2961828753349964 -0.1990457014774536 -0.1969334099677771 -0.1577346627909328 -0.1060403564460486 -0.069554353441406 -0.0724223219391932 0.2535955314045694 0.2592162870858254 0.3603384053799797 0.362223383180308 0.3710284927827322 0.3636325709824848 0.3397353705745684 0.3364278698649892 0.2806955169984279 0.2108011943614949 -0.0100120179010037 0.014745448682417 0.44616960974921 0.233847055824153 -0.5922034871168436 -0.6485358232808079 0.052746240423862 0.0534274052646818 -0.3395724532048705 -0.3228443584190145 -0.0834980719917714 -0.1271852753274371 -0.1950248814293898 -0.1919373500042844 -0.0727026735801251 -0.067280744983363 -0.0750404895549891 -0.0741456821333418 0.2569826251112511 0.2620433810664363 0.3638873850988818 0.3315320239763636 0.3707269997635765 0.3430965548773976 0.3387142858118753 0.3429335684974605 0.2063428038300274 0.2040465875393416 -0.0100120226504641 0.0138440900966867 0.6234912242123481 -0.1597895841348231 -0.6522410351792153 -0.1032172735603946 0.0560806155302338 0.0609814555446832 -0.323677319113581 -0.1835278515111287 -0.1216080095508828 -0.0008209252725135046 -0.1915069788879527 -0.3834168502860744 -0.0719402056566375 -0.0748064315159701 -0.072213738412233 -0.0583500385867245 0.2566485903730684 0.2624700487022429 0.2521853825086631 0.2478284814223007 0.2557638060632388 0.25755165107653 0.2511245358725899 0.2532671650796791 0.2614308750240074 0.2546914851726994 0.2505670335425252 0.2544727007756299 0.2547793319477044 0.2533746377717864 0.2564661476010828 0.2541877203726031 0.2546673601033206 0.2527018017276977 0.2584642465899098 0.2533377627999283 0.2573810059670276 0.2549259408003864 0.2521142156698703 0.2519632949094892 0.245181558503867 0.2571929210786735 0.2552446447009699 0.251442608296134 0.2621610313233649 0.2625577857069748 0.2517730650497223 0.2555585273779783 0.2523836589951111 0.252301063909424 0.2522339430855799 0.259312850624509 0.2563050013589952 0.2554625378414192 0.2538202042451701 0.2586128228212033 0.2568403396135532 0.2555855647622858 0.2575316575079448 0.2594598531709432 0.2560485559628063 0.2531814893160604 0.2504370985171228 0.2550745617031728 0.2642605384386839 0.2566760316146978 0.258968740362319 0.2483049512159734 0.2514734300501004 0.2561730736428823 0.2509417354650227 0.2630049680997675 0.2623858125769027 0.2558593269404821
-0.3940122802534778 -0.0126023994663283 -0.0126004977687705 -0.0126012747752664 -0.0126013756087561 -0.00103308323688663 -0.0010331034924433 -0.0010322095666238 -0.00103324896499405 -0.00103253838197692 -0.00103246019181184 -0.00103297626138668 -0.00103193058475791 -0.001032562972864 -0.00103244849503314 -0.0853328670693228 0.1423098594161582 -0.0831344531791957 0.0888733472285288 0.0298486659300252 -0.0992780147445716 0.5602718460292362 -0.0125995797860187 -0.0125988836249639 -0.0125995429811204 -0.0126003029741876 -0.0126026075769803 0.3471094349001776 0.2707771594493357 -0.012602349711092 -0.0125998518463789 -0.0125996241236124 -0.0126003685686517 -0.00103215949030363 -0.00103325093778758 -0.0010332955084381 -0.00103250181425422 -0.0010320786160073 -0.00103221376631348 -0.00103357909553557 -0.00103294284532416 -0.0010330192056909 -0.00103222415148823 0.2879103385848846 0.1694150436309835 -0.0527300874762624 -0.0126018589375124 -0.0313099663835028 -0.1045113226851777 -0.0126013965033103 -0.0125985515601481 -0.0126014417753057 -0.0126002098623341 -0.0125990537115815 -0.0125992334228612 0.3805973700729355 0.4197055085438001 -0.0125985725058089 -0.0125995370014261 -0.0126008192559564 -0.0126017831727617 -0.00103304883011287 -0.00103319597576545 -0.00103293909590634 -0.00103250643609277 -0.00103234082721558 -0.00103201791919241 -0.00103284714487843 -0.0010323543531788 -0.0126001082147261 -0.0126005448085992 -0.0126013675562252 -0.0126006627287119 -0.0126017274543716 -0.0125987392570229 0.0954332325228796 0.0877699946092623 0.4601275522965442 -0.0126022900203874 -0.0125989529505414 -0.0125991055204057 -0.0125975070883928 -0.0125997896295524 0.2993417596524848 0.5130903150869977 -0.0126030107968737 -0.0126001237029511 -0.0125984198803291 -0.0126002179468222 -0.00103427205010268 -0.00103255491449675 -0.00103286413707292 -0.00103187461349125 -0.00103388666173094 -0.00103238082847481 -0.00103321268669368 -0.0010325981725389 -0.0126004316934301 -0.0125973771489897 -0.0126007191986749 -0.0125989590073959 -0.0126003221550384 -0.0125996950392153 -0.0941269308428405 -0.0126009978990348 0.0583243901886703 -0.0126008562970764 -0.0126021078733884 -0.0126005950881505 -0.0125985142624678 -0.0126014787437896 0.2466080059534689 0.4269099769518196 -0.00103229127896682 -0.00103344481005758 -0.0010331315508619 -0.00103321 -0.00103232439558781 -0.0010327151662474 -0.00103231768040634 -0.0010333972400985 -0.00103315008706317 -0.00103320154426529 -0.0010330839805488 -0.00103348735236079 0.0611631032692301 0.0342088752479919 -0.0126012305821566 -0.0126017080472454 -0.0125983498343653 -0.0125995497563815 -0.0125991623612876 -0.0125990077810543 -0.0125986487660771 -0.0125986864992193 -0.0125999774294958 -0.0126001818245617 -0.0126005144589944 -0.012600124343459 0.3388188976275999 0.2209358165536722 -0.00103262854138508 -0.00103215907488646 -0.00103288413598921 -0.00103277771877604 -0.00103410494793843 -0.00103271284857783 -0.00103293361314887 -0.00103264550693056 -0.00103434736722187 -0.00103196415275774 -0.00103265135900707 -0.00103341272852057 -0.5802824589945971 0.0280551822130689 -0.0125996174742125 -0.012599337994153 -0.0125994368218183 -0.0125995777152483 -0.0125997679418551 -0.0125993844794592 -0.0126014598351168 -0.0126036633767295 -0.0125995652798171 -0.0125986203588869 -0.0125995564866256 -0.0126015871991402 0.438012516475119 0.3036769945749003 -0.00103322152251408 -0.00103297782673481 -0.00103278770703672 -0.00103312636305759 -0.00103275053489246 -0.00103321570439386 -0.00103311948173548 -0.00103276696357625 -0.00033418424055757707 -0.1105595746867089 0.529027249001143 0.6354426444871111 0.4470700818354659 0.6218136168750787 -0.0125997049638581 -0.0124478401358204 0.0287624255789772 0.0488012366869417 -0.00753108 0.6077613723410573 -0.4768645397068278 -0.5465539528805989 -0.0010333760095166 -0.00103237056049215 -0.0126015685978967 -0.0125981929632582 0.3939374242689848 0.2069825234328844 -0.00103268062512594 -0.00103227887032601 -0.00103303844286599 -0.00103254094262962 -0.00103207756079213 -0.00103442055100963 -0.0010326845884835 -0.00103286769552672 0.1084723644104201 0.060201370240916 0.6098432493992348 0.5280987863072062 0.5037895783212504 0.5154473176188988 0.0310308215344272 0.0665730391640023 0.071863395877777 0.0718643171820922 0.9031543498400499 -0.1106213327244772 0.0280749105726154 0.0163576499645869 -0.00103188690538381 -0.00103303712469525 -0.0126014805581403 -0.0126005672478859 0.3756010775072237 0.3315268857904439 -0.00103314107318823 -0.00103308024527331 -0.00103339627170495 -0.00103330917870257 -0.0125991163848148 -0.0125975504275418 -0.0126001479566259 -0.0126012317242311 -0.012600768106957 -0.012598133777721 0.3541882770121673 0.5013903317153521 -0.4765828949092963 0.1493093115624371 0.5351653055428399 0.5316388242589455 0.3900294942690868 0.5719618540144565 -0.0475527393099621 0.0838089551229375 0.0838085314656586 0.07344571749916 -0.0002767156357371232 -0.00103284618247428 -0.0125988477141644 -0.0126002464158741 0.3249879263967571 0.416228611378782 -0.0010328950141191 -0.001032572310388 -0.00103296042265698 -0.00103323506675632 -0.0125974006304677 -0.0125989265636838 -0.0125983941058872 -0.0125988657047963 -0.0126004956390627 -0.0126001716228791 0.2934839220292799 -0.1790903404103758 0.0838086668511978 0.0838090796595866 0.0838079070937523 0.083808954668978 0.0838105236930335 0.0838086571355996 0.0838088336028805 0.083808907424369 0.0838087407447821 0.0838091464480986 -0.1514787093200905 0.4976285551975123 -0.0126007607134164 -0.0125997155841322 0.4201378033786748 0.2695470516945841 -0.00103283283097423 -0.0010324679351969 -0.00103328 -0.00103235955266613 -0.0126020043807045 -0.0126011804420001 -0.0125992757210671 0.4157222063150769 -0.0125996887136766 0.3049419588743117 -0.1481014914233985 -0.4644268847552309 0.0838090909298395 0.083808589903822 0.0382858911486958 0.0258085484999888 0.0738256723843844 0.0838102962304089 0.0838089458011546 0.083808884045648 0.0838072420063983 0.0320355256247225 0.3639108062895273 0.5401127169446395 -0.0126013115891069 -0.0126004099136554 0.3809010059927665 0.47756453506416 -0.00103336368036959 -0.00103250526471312 -0.00103368029793058 -0.00103385374958231 -0.0126005350643247 -0.0126013883172554 0.4377354503542652 0.4689928860839596 0.1453167177611333 0.2390113826505955 -0.5102960125875508 -0.3979057072270694 -0.4643210474627424 0.6885857949593754 0.0212036180787348 0.0571192426441794 0.0718644708517408 0.0718628840568244 0.0718641727300345 0.0718640450217426 0.0454004433127076 -0.0125992712515382 0.4457841351186532 -0.0150559196870191 -0.0126023249431671 -0.0126005293669517 0.3863466315078934 0.2306398083452407 -0.00103313989497899 0.3929726503466433 -0.0125987983230168 -0.012598095503543 -0.012602215690844 -0.012598613580828 0.5332505770636748 0.0984484726777615 -0.2471233709835228 -0.5030470354567435 0.0838097795905444 0.3542940216209578 0.00872592703311163 0.0692177153451841 0.0718638429432274 0.0718625919065567 0.0718635639330903 0.0718626011403313 0.0718639885169648 0.0578752924827547 -0.0124468301175001 -0.0125986231478317 -0.0100200784763329 -0.0126006659710772 -0.0126008272705251 -0.0125990825324872 0.2886510145282758 0.3503229519919797 -0.5944107263483706 -0.0126003569324138 -0.0126024256080772 -0.0125982638870277 -0.0126027454207901 -0.012599472650247 -0.0427909546130748 0.0871785125322741 0.0838093730651786 0.0838075205356674 -0.2191023434744752 0.6095989096060388 0.0718619988439304 0.0718636154210499 0.065059579810568 0.0242273904647835 0.0499369003006252 0.0718638721325345 0.0718634473024296 0.0208227020656302 0.4243695518471034 0.211393105743344 -0.00520466185610515 0.0489765162077506 -0.0126023947664597 -0.0125999464097852 0.3347023584556493 0.4540058160537715 -0.0126009026736965 -0.0125996549673018 -0.0125988252601043 -0.0125987700495161 -0.0126010447420211 -0.0125993013917009 -0.00103255599751325 0.00010112558294227687 0.0734461375086562 0.0838081011200509 -0.0545290238912838 0.0684628031279979 0.0658136323913233 0.0253608479155363 -0.0125990840179482 -0.00677544749817153 0.0692171780838997 0.0718626868379881 0.4684671831744888 0.6175627557618054 -0.0506869808138786 0.0815890237679162 -0.0126031089455272 -0.0125992332691915 -0.0125993463792525 -0.012601257512777 0.2999820120679965 0.443787643632372 -0.0126021713330616 -0.0126010688442418 -0.0126003455394899 -0.0126002129747551 -0.0126021617333985 -0.0125995471874076 -0.00103200306980789 -0.0010327565524152 0.00501588822580408 0.0337476791255676 0.2383948180412591 -0.00904368174713198 -0.0126028742664991 -0.012601918641281 -0.0126025705357105 0.04124024367544 0.602871710176496 -0.5164345981249696 0.0133303719448461 -0.00103300759565717 0.045396084084973 0.0668941033662268 -0.0126015398029172 -0.012599242763685 -0.0126002059311178 -0.0125988362726654 0.3364690673704584 0.3981823886036258 -0.0126001849882645 -0.0126003477396154 -0.0126017881369152 -0.0126025474045346 -0.0126031946317232 -0.0125990686173787 -0.4776836766837288 -0.4935507916608844 -0.00103409817427425 -0.00103269263537716 0.2731816357045105 0.0762049277068361 0.0579895013966842 -0.4531100522668951 0.0348856892054953 0.0838087623527921 0.0838103332215098 0.0575674709421362 -0.0010325489998861 -0.00103301257292178 -0.0125992758592176 -0.0126009831403732 -0.0126017176301872 -0.012598554579859 -0.0125993746024794 -0.0126003928469616 0.2457205577602841 0.3569772243675508 -0.012598683674627 -0.0125995618598988 -0.0126007026748597 -0.0125993176665783 -0.0126014131230277 -0.0126009904001696 -0.5683718520390934 -0.5892659930575151 -0.00103303491804038 -0.4710302104672484 -0.1457323697417968 0.406075452255588 -0.463438849301904 0.00577151903855891 0.0783615048160245 0.0838070637827125 0.0838098191499735 0.0012356618151983 -0.00103233549076171 -0.00103319110884415 -0.0409913553638677 0.4177090542315004 -0.0126017992925617 -0.0126004124684964 -0.0126024776056304 -0.0126000916679852 0.3381479538958779 0.4621147323691401 -0.0125997853458427 -0.0126022845588446 -0.0126016336841756 -0.0126011778709652 -0.0126002249741294 -0.0125984732297875 -0.0126001562032805 -0.0126006657266009 -0.2195958264044784 -0.00103397 -0.00103183433012772 -0.00103428921532533 -0.0010333825442132 0.0734495953544263 0.0838106426969422 0.0838088979014394 0.0363952101848767 -0.00103250220929786 -0.4433837840740507 -0.4690228448747094 0.5149319323000313 0.4945127378360527 -0.0126010669122396 -0.0125995514749022 -0.0126038834745764 -0.0125995649145229 0.467014591132748 0.3000043871332112 -0.0125992270211279 -0.0125986806191415 -0.0126029820012798 -0.0125997721665839 -0.0125990987349337 -0.0126021262467971 -0.0125992270299416 -0.0126018630734069 -0.5705952444790673 -0.00103354077607072 -0.00103285939414521 -0.00103370536966737 0.011820079123387 0.0838103371414913 0.0838078301541868 0.0666432231299531 0.045514290476964 -0.2344974850270442 -0.2382322686062549 -0.440214598667569 0.5462177323358096 -0.2644228588974444 -0.0125999771377113 -0.0126007582390417 -0.0126023634080615 -0.0126013220529839 0.3834161181849714 0.4588031306725597 -0.0289958236056707 0.0209322698270267 0.0517647542031902 -0.077109673569825 -0.012600947353174 -0.0126010842480215 -0.0125995714559843 -0.0125993745462623 0.6131951626715418 0.5412504855755625 -0.00103185154681482 0.00917479510846147 0.0832797294685068 0.0838098137191512 0.1830742288427772 0.4421932695612453 -0.0126004297523088 -0.0126008286110034 -0.0313744905083073 -0.5802781604970108 -0.4087746948440855 -0.2958406596997568 -0.1286132918909755 -0.1360126763160647 0.2012045801541686 -0.1210349918862302 0.2847720233340201 0.3512564432087447 -0.0607275946946549 0.0338083634232642 0.1106722674225345 0.00776232704101319 -0.0126019777980161 -0.0126006715081902 -0.012600215241101 0.1671328865749525 0.3023017188541237 0.3546101968179166 0.0565156973356783 -0.8343962705270151 0.0838100220529272 -0.2562258297253093 0.4395705610097521 -0.0126031226606279 -0.0126021526483342 -0.012601224360938 -0.4313264483903458 -0.00103317104814196 -0.2663195761275143 -0.1782607110746089 -0.2653256571518037 -0.0311179907015372 -0.0125986407293627 -0.2167669476753232 0.2860644145154305 0.4379840039478355 0.5400307378104505 0.0621753950979759 0.417896858207814 0.6945392124413234 0.5417112929099 0.5042176050640155 0.2321466623512674 0.2984528175695237 0.5654604780689882 -0.0125975659867298 0.1855784706793941 0.6731645900893461 0.1186056447479424 -0.1265695190116715 0.3573218945542148 0.0159682527108383 -0.5486622532367709 -0.5641058849962949 0.015023053015082 -0.4040981153950601 -0.3561577402723218 -0.3538353173486824 -0.2811762744752728 -0.1796022767525285 -0.1859117798441676 -0.1839096227836669 0.3112606523174106 0.3091024616519465 0.5318579367576636 0.0796721570878317 0.544467452055818 -0.1739521193683331 0.6846110422471056 0.681755500555962 0.3854131291751798 0.0296262336937154 -0.0126029737892309 -0.0125988966915478 0.045022539811491 0.0782908859362805 -0.4544852678052774 -0.1715127684433 -0.00866443054764028 0.6082717018286617 0.0716939459105221 0.5216824276213688 -0.3991095646569002 -0.4824867002558104 -0.3633332083318254 -0.2933113616022574 -0.2439798097872526 -0.2220865431180238 -0.2101063004509294 -0.182644724042737 0.4779671458078035 0.319540386924675 0.6702072917321316 0.1236935903158888 -0.178748615361238 -0.0110071680978024 0.5409218092704994 0.5408864215619316 0.4599482898984949 0.457558902985733 -0.0125994352012849 0.0185573774359659 0.683527311985711 0.4498114961591422 -0.6918753035696853 -0.8186423347222553 0.1812908342702911 0.2023722054655715 -0.5181495530174823 -0.5920154179960739 -0.0632379744704892 -0.1199651615974927 -0.3437640027973928 -0.3012249306608698 -0.1034647721652777 -0.1902021583905182 -0.1866802451674321 -0.1868250971107842 0.3083211159001784 0.5163910559726876 0.0299599524426044 0.556635905340648 -0.0296356730104867 0.6705735440138951 0.5436342268805936 0.533682136690059 0.4395955139875969 0.4412390991868955 -0.0126002364711662 0.0174206346360637 0.6900815084576181 -0.1167388887073011 -0.6346393618147962 -0.0114139344434429 0.0128440265306116 0.2187874884380647 -0.5483048408459175 -0.3454954667353814 -0.028689841448218 -0.00103233604945882 -0.1336828665028349 -0.1035838603946473 -0.0265689437614417 -0.0992160284284695 -0.1240661734176172 -0.0627994667970017 0.2471793762962054 0.2098494186614543 0.2644332920170985 0.4627692071551482 0.3706272961999077 0.2425650233580988 0.295299272217623 0.2785461097416836 0.2873911994859893 0.3239438515907471 0.4489330039738276 0.3244632180959732 0.202397637684321 0.2472870925349182 0.3344414275754883 0.2274195575795262 0.3463131864223993 0.2174487754786748 0.1589032392021383 0.2228293493611292 0.432665604679273 0.4095598829696329 0.4256695096812344 0.2517247491291901 0.1813084816178065 0.3273042914883185 0.3603434673179504 0.34989087163429 0.3564953066509213 0.3159659682706676 0.373758709501342 0.2702692355840545 0.4385023294060577 0.322045814660422 0.2786609239975703 0.4047418737049366 0.3979075006379045 0.2855352762499647 0.4123742248775759 0.2595185295192093 0.2741802513243848 0.2291641805780092 0.2341048334967476 0.5980948982388622 0.2553350251350195 0.2956774391745766 0.3273624285561726 0.3555697924058845 0.2956435796147277 0.2648655667593173 0.3674792262479558 0.4046959189469979 0.2688124340363719 0.3074165069405531 0.2091512708497612 0.3842775193047906 0.2710554379691383 0.3204364557067338
-0.3232079078228949 -0.0221928717216104 -0.0221872422206781 -0.0221903103279405 -0.0221896615460289 -0.00182102571718385 -0.00181967986195783 -0.00181902059804423 -0.00182044411345986 -0.00181842313396927 -0.00181964964240204 -0.00181947339909874 -0.00181751087428749 -0.0018192756485445 -0.00181848121078072 -0.3075126122199596 0.163781224719889 0.5214666142428089 0.2032953685177545 0.1062601227161139 0.4963770220475832 0.7839332513465715 -0.0221891963560419 -0.0221856434186148 -0.0221886693121494 -0.0221875210436373 -0.0221922350402494 -0.0750616009264434 0.8462746379590016 -0.0221918703476573 -0.0221867909666486 -0.022186794944608 -0.0221872496898482 -0.00181979149597785 -0.00182029559324025 -0.00181996819615045 -0.00181766409653033 -0.00181832116823701 -0.00181874984864383 -0.00182056862695637 -0.00181926981633554 -0.00181997069578607 -0.00181784200905718 0.4116791669476761 0.2167737287622645 0.00697728683779843 -0.0221944146812301 -0.2034743699743786 0.8465996974475932 -0.0221904430773067 -0.0221861955796604 -0.0221918426585824 -0.0221912126296104 -0.022186795567565 -0.0221872365271045 -0.0141409111398214 0.0734257055083638 -0.0221851554690552 -0.0221856403691546 -0.0221900672426173 -0.0221912612437305 -0.00182077314752515 -0.00182038495824121 -0.00181985257918064 -0.00181880609316433 -0.00181976434225848 -0.00181823772710182 -0.00181933 -0.00181744109508633 -0.0221879788027494 -0.0221865059862027 -0.0221886558664791 -0.022188405081515 -0.0221904155951968 -0.0221846157365297 0.1555600258314318 0.3112795654438921 0.4954984033228421 -0.0221910853276155 -0.0221856220386576 -0.0221852332974136 -0.0221810205603591 -0.022186930994815 0.7154514621329306 0.4278121721111322 -0.0221944203516843 -0.0221883938735403 -0.0221859831057838 -0.0221878036129842 -0.00182341425514305 -0.00181839642883381 -0.00181928197494078 -0.00181690627767962 -0.00182288525461792 -0.00181929025566946 -0.00182093698281135 -0.00181781040806417 -0.0221887762054293 -0.0221830359491347 -0.0221899994696046 -0.0221883110578078 -0.0221874098376639 -0.0221857708783609 0.4417469393570765 -0.0221917910002417 0.1132816046090127 -0.0221899507680698 -0.0221897672007021 -0.0221897224758712 -0.0221832043946402 -0.0221902420119917 0.746003793412059 0.3318148998966546 -0.00181891331205923 -0.00182103424099472 -0.0018202975567521 -0.00181955855036459 -0.00181887230413839 -0.00182063193821402 -0.00181971782358559 -0.00182003559182156 -0.00181893786300991 -0.0018204028365489 -0.00181986205826592 -0.00182101453857423 -0.6442521658758457 0.1323922724393736 -0.0221908854791002 -0.0221907413140841 -0.0221849900751412 -0.0221889289204801 -0.0221842758668443 -0.0221870491703716 -0.0221827419781359 -0.0221865717308411 -0.0221869548046833 -0.0221872599690362 -0.0221890299160636 -0.0221879412082286 0.0792904226063286 0.6869052638268255 -0.00181985438210792 -0.00181736337132971 -0.00181952118618977 -0.00181992597583171 -0.0018216385899049 -0.00181881381405762 -0.00181993529909328 -0.00181979072428012 -0.0018224921388011 -0.00181709055857681 -0.00181942145602017 -0.00182105920043603 -0.8164915434276119 0.1334887314061558 -0.0221857891486186 -0.022186232405641 -0.0221867032937817 -0.0221892941814115 -0.0221873362219052 -0.0221867245822451 -0.0221884543395537 -0.0221948901592774 -0.0221866945329382 -0.0221854414582077 -0.0221857761516154 -0.0221918385881455 0.3169199795087459 0.7426780655861223 -0.00182130923636998 -0.00182044641769368 -0.00182011526014485 -0.00181950893011696 -0.00181915302968577 -0.00182055332182569 -0.0018192844782003 -0.00182030448804064 -0.00493018731793196 -0.2691885862890632 0.5382773646720689 0.8275553863256944 0.5246796534783333 0.9191084399271682 -0.0221877218192558 -0.0219154095530161 0.0506508210332737 0.0859349057160163 -0.0132583194877289 1.48133021597596 -1.173385646406788 -1.464163768741256 -0.00182092412924549 -0.00181772656484167 -0.0221905718461435 -0.022180968077425 0.2110481485650965 0.588515971681038 -0.00181978484426734 -0.00181829433777719 -0.00182065541431865 -0.00181869042678307 -0.00181856457763118 -0.00182265489991534 -0.00181869470752777 -0.00182008206150223 -0.7287827960535647 -0.0109273343355068 0.7571574157914641 0.5164551953989583 0.5526355135145046 0.2096795510255069 0.0546413982685069 0.1172275581297141 0.1265443453043747 0.1265466476243964 2.190807749990444 -0.5920628026466719 0.0494346208027517 0.0288010363374185 -0.00181831977206716 -0.0018214658587726 -0.0221924671429812 -0.0221896355977818 0.163652556300119 0.1221631879876014 -0.00181969910405544 -0.00181969196386253 -0.00182041402098274 -0.00182076415216379 -0.0221881825481386 -0.0221818895141072 -0.0221883960686864 -0.0221876065712789 -0.0221879463503654 -0.0221848308348165 1.124441507124325 0.3804903197579277 -0.1918727752338376 0.218831058019334 0.4963479127874744 0.3514359705517369 1.163354913041334 1.419198573134176 0.0737136328306424 0.1475786991689414 0.1475771989077178 0.1293266648509758 -0.000487407012652315 -0.00181956082679818 -0.0221863049949234 -0.0221880513809352 0.062220180743538 0.1659128528753367 -0.0018199860092693 -0.00181803640645833 -0.00182020212278037 -0.00182075884771391 -0.0221814665895031 -0.0221869791338021 -0.0221842769848654 -0.0221839127834773 -0.02218581481162 -0.0221894730346264 0.613251552305408 -0.51575247906461 0.1475785686248493 0.1475788147355316 0.1475750085475994 0.1475782441756339 0.1475815901560719 0.147579686086726 0.1475796743998808 0.1475770735163039 0.1475781963172739 0.147579388859578 -0.3991009183425591 0.2526806555015742 -0.0221891734306994 -0.0221865222529983 0.2658188907260567 0.7048472477075982 -0.00181952669053979 -0.00181864606184041 -0.00182078408379598 -0.00181890836397134 -0.0221924884281652 -0.022190021178276 -0.0221867672572072 0.1911029936981959 -0.0221882480356666 0.7868211833173921 -0.2800924937055932 -1.172708525954628 0.1475808168582182 0.1475764292515788 0.0674159466033311 0.0454438753941083 0.129994663534287 0.1475815149809884 0.1475782785373645 0.1475772398514928 0.1475734835244779 0.2113656274282956 0.0614126941061908 0.5126113022675157 -0.0221908575335898 -0.0221884509286732 0.3183106266805882 0.3443480090082882 -0.00181987590233662 -0.00181998289471448 -0.00182202838013494 -0.00182212755145942 -0.0221905879146812 -0.022188489764164 0.2599993294355273 1.311466996210842 0.3306710966361142 0.4940057357036685 -0.5587758082232644 -1.199191785027596 -0.8753453123075188 1.876529512084143 0.037341727384646 0.1005830716768639 0.1265462886463545 0.1265431741841789 0.1265460565598425 0.126545111888739 0.0799460713762853 -0.0221860699193298 0.3713752514793165 -0.0862651324368347 -0.0221927304959984 -0.0221932058200677 0.1411903961422366 0.5842994108661634 -0.00181958132433603 0.8616919570249683 -0.022184982339623 -0.0221858160631756 -0.0221921370937344 -0.0221866330660204 1.395490734752803 0.3514165939667775 -0.5749745607789999 -0.5103252301759639 0.1475807169498799 0.7885965367482701 0.0153699023790735 0.1218864903532181 0.1265454677853839 0.1265436570812292 0.1265449436751363 0.126542940854903 0.1265478529390505 0.1019156857696783 -0.0219150380659009 -0.0221835696943662 0.0951517355524268 -0.0221884154231274 -0.0221883568028475 -0.0221836203290936 0.7910005063613719 0.0640876454716621 -0.8736023976891797 -0.0221859223278438 -0.0221933788903275 -0.0221833918266421 -0.0221931390940433 -0.0221866946151775 0.0260878206821635 0.3361909216399747 0.1475786954571216 0.1475757800872257 -0.5653142072056568 1.72340036251219 0.1265412953732038 0.1265447206696579 0.1145644399782719 0.0426643570186435 0.0879376117412201 0.1265462403304857 0.1265440631901136 0.0366693043798612 0.823041614889317 0.5721901751568919 -0.1011300946625692 0.164094088748973 -0.0221912350760127 -0.0221919274524457 0.0988035299604081 0.3967152613560949 -0.022191080655821 -0.0221879635906166 -0.0221866223973256 -0.0221863118343228 -0.0221925686899867 -0.0221857942262985 -0.00181876645482583 0.00017699451716099177 0.1293274312984451 0.1475775506536762 -0.0249490119394554 0.1205563855144379 0.1158929187434113 0.0446589753785201 -0.0221866660777597 -0.0119295470596419 0.1218847876226466 0.1265430162666243 0.9909648456575346 1.338426623731406 -0.0665177445007093 0.1093966256922733 -0.0221937771013226 -0.0221855312369376 -0.0221860432331328 -0.0221924669913647 0.72038893240939 0.1877180892174027 -0.0221949750141209 -0.0221883972102534 -0.0221875162394497 -0.0221871728332131 -0.0221899858630166 -0.0221853076602134 -0.00181852023121832 -0.00182007358727978 0.00883133217367867 0.0594221813475323 0.3616680598859356 -0.0159225909892919 -0.0221917866253422 -0.0221904475659219 -0.02219314656374 0.0726234579344262 1.611792937288149 -1.536344152781594 0.0234715465750181 -0.00181995384615082 -0.1162501632180475 -0.1829428892592108 -0.0221907655829865 -0.022186284296301 -0.0221888633795659 -0.0221847387674081 0.9105337567954008 0.2694803434746213 -0.0221860302288564 -0.0221896674220716 -0.0221912070694443 -0.0221932494153454 -0.0221953848176255 -0.0221871185190209 -1.344542217682236 -1.273573902011179 -0.00182255642961102 -0.00181921879241269 0.6005607397104087 0.2125156476154518 0.2430142298870871 -1.120190977066195 0.0614295582000775 0.1475773209890772 0.1475822309658261 0.1013689173184574 -0.00182084799879546 -0.00182043804770213 -0.0221874152392578 -0.0221914715533746 -0.0221895147368432 -0.0221854494677723 -0.0221848971417136 -0.0221873519558121 0.5771464839786806 0.1103797488039968 -0.022183215322142 -0.0221908061933739 -0.0221874166570332 -0.0221865458820902 -0.0221899205342461 -0.0221878227769932 -0.4703728284639707 -1.651586637769021 -0.00181914045084541 -1.281816991066811 -0.5024661941348928 0.4175758962490355 -1.34537943879918 0.0101603009248761 0.1379846427342561 0.1475758256583019 0.1475785437574908 0.00217492232460317 -0.00181822924093726 -0.0018207107536006 -0.0885684445715849 0.378201747925941 -0.0221915860878822 -0.0221878483605382 -0.0221928794304681 -0.022189019708258 0.1208270056155631 0.3432410346235937 -0.0221888718398995 -0.0221920490288062 -0.0221912014173063 -0.0221912815098138 -0.0221874199884745 -0.0221821524283881 -0.0221865310480078 -0.0221910081485519 -0.3815404951205821 -0.00182317724118995 -0.00181750844654234 -0.00182278756617308 -0.00182029226746799 0.1293358461136327 0.1475817736254903 0.1475816103687527 0.0640855304769184 -0.00181896702146803 -0.9070496629983761 -0.8739558223918539 0.8249619259356455 0.5820195773061172 -0.0221916412725554 -0.0221873256329265 -0.0221949147250324 -0.0221872839421366 0.4465003565850427 0.7068052847106367 -0.022183723412014 -0.0221826615627759 -0.0221923 -0.0221870219886015 -0.0221856358009263 -0.0221906380248369 -0.0221859735556963 -0.0221912384763381 -0.6810650092562935 -0.00182200468104742 -0.00182045969299371 -0.00182171672574009 0.0208115926373037 0.1475809445316832 0.1475802758539492 0.1173510235292873 0.1170326613087421 -0.5051632473808646 -0.459888588819027 -1.050423058385789 0.8391186855936972 -0.2907792888700485 -0.0221893615417879 -0.0221895277770537 -0.0221933745405352 -0.0221907044603917 0.0927952448699823 0.3374216041465571 0.1027785252604353 0.0765302215698648 0.1367192756334881 0.5964752071471155 -0.02218956416477 -0.0221890824861099 -0.0221862826531701 -0.022185717613519 0.7750275441580726 0.6198058242575593 -0.00181841395203866 0.0161537517800732 0.1466463824097148 0.147579784178082 -0.00113372306770486 1.001939453943706 -0.0221896089099898 -0.0221890834478471 0.2809682422766053 -0.4471175546876931 -0.6530312204346072 -0.3949426426677252 -0.1913939650659192 -0.163670825376691 0.4613733086489641 0.0447661234095271 0.6170881742508156 0.1664968094732264 -0.1371691501277436 0.0676112608982614 0.1466868557353701 0.0946296887913734 -0.0221915575938127 -0.0221890839054185 -0.0221877864880517 0.439216212918973 0.0296917721329995 1.078916450687594 0.2270004071323933 -1.837741948062693 0.1475799073646411 -0.6155573030163186 1.311115579012306 -0.0221973118031648 -0.0221931117975393 -0.0221890829426296 -0.2268881090750325 -0.00181813463050019 -0.252192128815267 -0.4058533460735406 -0.276786807880475 0.1167584086262409 -0.0221851387385701 -0.3335328861132287 0.0504908400277855 0.341338209605779 0.5527359602922188 0.0894035214030136 0.3271674190514944 0.7981021340412479 0.6679718385182746 0.700798562772397 0.4936936137736055 0.4489447483103027 0.5339453527039678 -0.0221824739464136 0.4534635227937976 0.4976469251066549 0.5130074127045401 0.2938846914905575 0.3631716190456456 0.0635849618107851 -0.529881954479913 -0.5435845665686032 0.00474893631188158 -0.3647168073859325 -0.4184293129903334 -0.5758712160607903 -0.2885609913526038 -0.2227928741204651 -0.1857501401492275 -0.2845793520891463 0.7437884116757555 0.8506116076060221 0.7041357720799292 0.1849364042231917 0.7060748358810138 0.4617407417304697 0.9332433733527664 0.7641704557535834 0.6054919190664467 -0.0326809139647371 -0.0221931842820189 -0.0221839240552514 0.0792806207814058 0.3211090834422789 -1.146929082698962 -0.555052701558135 -0.0152553931446389 0.7444234114298163 0.2183158762573215 0.7302075000867785 -0.6214130792238475 -0.3306327697177548 -0.5650649036219881 -0.414991024680841 -0.2524865760461448 -0.3571768473657983 -0.2919242015635213 -0.2066296743737883 0.550005360455657 0.157005908134438 0.798717076810371 0.138322716048995 0.4939044596791013 0.1585288482162712 0.4035588347376779 0.445458707558898 0.4246392891843975 0.929764605618263 -0.0221888211373187 0.0326828006811614 0.7549943329442054 0.0741367543798266 -1.657056952285804 -1.969678246129469 0.2600505715452168 0.3660532072750325 -0.5467875541435387 -0.6415064539055604 0.0718012608629264 0.0458031299624804 -0.5223785902933262 -0.583729033219444 -0.1078518747219628 -0.0215398054067021 -0.1506138456455496 -0.1926153249345332 0.8105212331513413 0.385316082685715 0.0794074826696679 0.5641130922118598 -0.0150189175838449 0.8259954233149092 0.4925103321324858 0.5059477371571048 0.8251973986947507 0.8972033205271144 -0.0221847945293181 0.0306775196640143 0.5862774204605671 -0.5704895869809977 -0.3064560768145031 -0.197239402441784 0.1217100573484616 0.5603275067098377 -0.4462429252128327 -0.6635311615528727 0.0347140458737438 -0.00181738758868834 -0.0777415294313366 -0.212075893781053 0.1759203468676162 -0.1293459074231772 -0.0427013561178548 -0.0780064217943611 0.567282743674607 0.5613658703678224 0.7441990712882731 0.5394503340075175 0.1488987622894488 0.571598494241328 0.682586921593358 0.6589242728941324 0.6415092569607068 0.7134456103334645 0.3930827998879677 0.8876092877163266 0.5309826010931127 0.5210016721682047 0.0503719724517676 0.5229327123436226 0.0863155597437377 0.60496861366685 0.5282237105398861 0.4102872323688723 0.3472734417494592 0.1782786348643768 0.3161040343010803 0.6238377522874257 0.5822682139495844 0.0646271412275733 0.2461866629268675 0.1372139719339653 0.1511674925645959 -0.000406753 0.1257402476944693 0.7405712381231593 0.3837377735207743 0.8946423254118757 0.7357715230508566 0.1428256215179691 0.1646053241444806 0.6232933556126125 0.3094905201049107 0.7637842843463772 0.6017113315415122 0.5839024774513494 0.7943005581443928 0.5624119118219763 0.841428409612525 0.7816084353259773 0.8260062182549557 -0.0762265953152156 0.1374909636199872 0.7325547294143676 0.1080171982094539 0.3358502207814178 0.627500290409393 0.7584478191742677 0.4540760989067925 0.1574308419654352 0.7644595810770748 0.3780180865320587
-0.2955658168427446 -0.0203522731359009 -0.020348811391755 -0.0203511004033985 -0.0203511571896563 -0.00167048625326332 -0.00166861254511102 -0.00166946349328944 -0.00167033004086478 -0.001669105865746 -0.00167011327306755 -0.00167035983135513 -0.00166780074332655 -0.00166876697165059 -0.0016695316072379 -0.201976880860527 0.1447584045961226 0.3488772629101639 0.1284029045228051 -0.0275393600539888 0.2627960432179012 0.648715093093072 -0.0203477245158127 -0.0203463490977694 -0.0203489162655505 -0.0203477654775487 -0.0203519537473346 0.3571898506578006 0.4594504160458162 -0.0203519510254182 -0.0203485589365137 -0.0203457761970053 -0.020349220663834 -0.00166889228524651 -0.00167060852700026 -0.00166982559047515 -0.00166675337002745 -0.0016683534102106 -0.00166892504335647 -0.0016712386871485 -0.00166783697726956 -0.00167047276947064 -0.00166807340189815 0.3736840466129528 0.232533754794785 0.5685665617592607 -0.020355994139135 0.3535513880099607 0.4990193925606606 -0.0203503740849107 -0.0203447196499824 -0.0203531629499076 -0.0203501550696089 -0.0203462226682277 -0.0203480066075601 0.4591720537849768 0.5166062058184046 -0.0203471932514615 -0.0203472857043593 -0.0203520594970875 -0.020350123930723 -0.0016702795896446 -0.00167104625929952 -0.00166966569237175 -0.00166943258044472 -0.00166970477581428 -0.00166824166992684 -0.0016694071438637 -0.00166790279435903 -0.0203473767884386 -0.0203469756227355 -0.0203514650601858 -0.0203480241225296 -0.0203511437610514 -0.0203452647845994 -0.0168733520528181 0.3122693771399696 0.2793597979715457 -0.0203499760144589 -0.0203461032178767 -0.0203441587252052 -0.02034146846504 -0.0203475496607222 0.2994155513440695 0.1214532454531292 -0.0203533182913548 -0.0203498395516102 -0.0203457734435156 -0.0203487947480672 -0.00167313959900664 -0.00166690481425658 -0.00166932722137399 -0.00166741083141668 -0.00167282988053041 -0.0016687577169699 -0.00167130558945096 -0.00166722135176744 -0.0203489590977924 -0.0203444130524403 -0.0203515985951437 -0.0203505967601449 -0.0203479838056037 -0.020347129172644 0.6995094694166198 -0.0203536022121536 0.0778672920616583 -0.0203505085109136 -0.0203504748745942 -0.020351190011217 -0.0203452183939703 -0.020351516312827 0.237023019442812 0.2111882872075335 -0.00166837105947903 -0.00166965357055706 -0.0016691628151128 -0.00166939056494939 -0.00166914599429531 -0.00167147221230367 -0.00167034594989405 -0.00167023514424094 -0.00166967203294074 -0.00167093663701247 -0.00167039673328962 -0.00167038944862407 -0.3962822882653561 -0.4497472341582335 -0.0203497015787196 -0.02035222708819 -0.0203465490679968 -0.0203500085356618 -0.0203446507967445 -0.0203505801259388 -0.0203434146703067 -0.0203466442981244 -0.0203473728499874 -0.0203469645423557 -0.0203500811424409 -0.020349081525419 0.3567407959981943 0.7295948154613268 -0.00166833137167879 -0.0016677521949959 -0.00166981076053174 -0.00166936313593959 -0.00167122758692453 -0.00166836788195554 -0.00166958048744009 -0.00167029336088632 -0.00167349486156189 -0.00166727869412393 -0.00166920075259709 -0.00167167516172408 -0.6662376908162863 -0.4977808665876035 -0.0203461103302388 -0.0203468515656483 -0.0203478020089066 -0.0203513398606789 -0.0203487349322675 -0.0203479254854231 -0.0203487154056402 -0.0203546890801068 -0.0203481972237388 -0.0203458437863596 -0.0203456019726318 -0.0203521135646955 0.0788659302894155 0.3423446271406542 -0.00167195329327757 -0.00167085037198489 -0.00166975713747745 -0.00167006150069389 -0.00166874962515761 -0.00167021982331324 -0.00166888178241301 -0.00166951264782006 -0.6676157079161187 -0.2222660607108815 0.2663474403013026 0.7496254601837332 0.2982567213453467 0.715090574417834 -0.0203496249318168 -0.0200976802585927 0.0464581230090013 0.0788166329427875 -0.0121551643148467 1.592382827905094 -0.7872872003255011 -0.9345684853087362 -0.00167061761410187 -0.00166814382987395 -0.0203511741111988 -0.0203426532779021 0.5290756711907703 0.7820434482608161 -0.00166923500306469 -0.00166774261377683 -0.00167066362027313 -0.00166792531966172 -0.00166804708321123 -0.00167283133528844 -0.00166853438581832 -0.00166884967880289 -0.5577110328635689 -0.4378895224975484 0.5201049478247152 0.3940804538593895 0.3175211642399469 -0.0860054139097159 0.0501163135669462 0.1075185637991735 0.1160618329725545 0.1160647744794866 2.486698138085621 0.1418102740865057 0.0453388980694907 0.0264118404517788 -0.00166827607735378 -0.00167136883473153 -0.0203561483333055 -0.0203505487903154 0.4854537333618636 0.3147618404020748 -0.00167005790434478 -0.00166783447882597 -0.00167148253965724 -0.00167071752387003 -0.0203482369013913 -0.0203444679524015 -0.0203494938564154 -0.0203485873595355 -0.0203482066941694 -0.0203459664443623 0.687240101079728 0.1723618664519726 0.2139747775669713 0.2345475939530909 0.1849020123823022 0.3152667911872458 1.284496955877217 1.474012620426161 -0.0681478300601159 0.135351598237126 0.1353496085067127 0.1186118993311306 -0.00044649 -0.00167025161396198 -0.020350614582503 -0.0203498910731443 0.2935695251197 -0.0368103377775624 -0.00167005717895015 -0.00166850699793907 -0.00166959507251588 -0.00166957978696149 -0.0203424171868543 -0.0203475943114316 -0.0203443886130811 -0.0203429434113914 -0.0203493521079084 -0.0203514066700121 0.650173457393894 -0.6269189713624559 0.1353527310556029 0.1353500284786616 0.1353484806465208 0.1353494285155876 0.1353537107451607 0.1353525654883953 0.135353408283754 0.1353494973376091 0.1353528056073563 0.1353502472545963 -0.5760241835696261 0.0224588189057282 -0.0203501873837432 -0.0203460561869038 -0.0260173285979947 0.3647188644748801 -0.00166988891355267 -0.00166862725926949 -0.0016702755041453 -0.00166838438230704 -0.0203522241574808 -0.02034910966634 -0.0203484436265306 0.5864347556125041 -0.0203467488438206 0.890938617983623 -0.2882809906048032 -1.230817502108344 0.1353556961187689 0.1353495342420024 0.0618285503571717 0.0416775779166185 0.1192231758211306 0.1353535964629551 0.1353494988824312 0.1353510612010785 0.1353486726940405 0.3116586949434945 0.5719948451800392 0.4099108182995404 -0.0203490598142449 -0.020348291174038 0.00830292222204198 0.1532523979005266 -0.00166999265461864 -0.00166924115381236 -0.00167189972846212 -0.00167108123652769 -0.020351158790799 -0.0203473227113303 0.8335140943970459 0.8323053442423609 0.2651428909213176 0.538414979020727 -0.2914637456074633 -1.432428970483963 0.00434062366436796 2.22449409824314 0.0342496406094008 0.092251367576809 0.116062685957358 0.1160593376667 0.1160642788481802 0.1160630097938569 0.0733251016451186 -0.0203476702411905 0.2307768925105197 0.508519923079328 -0.0203507087405619 -0.0203543171921116 0.3851663658922261 0.6898907212745204 -0.00166942899868375 0.7940143791674863 -0.0203471454968066 -0.0203469202786146 -0.0203524445159541 -0.0203469523099778 0.7226584557903974 0.6386817477089388 -0.6129034216413572 -0.2818276845711211 0.135355049815693 0.2704809695622058 0.0140984620532013 0.1117905593208664 0.1160632204964634 0.1160617082434457 0.1160622934574809 0.1160611330816967 0.1160656027190754 0.0934761566785822 -0.0200976525712244 -0.020344791401965 -0.4453199508180921 -0.0203496168864385 -0.0203492195589649 -0.0203444403607725 0.3691270195953822 0.485256937964635 -0.7292711051430772 -0.0203485658829063 -0.0203506828666449 -0.0203444775964348 -0.0203553117389571 -0.020347566932699 -0.2903938932812294 0.3408675173195939 0.1353516676100687 0.1353475750238243 -0.7264836401033797 1.841796664282238 0.1160602139890909 0.1160626846877134 0.1050764039696658 0.0391299782165039 0.08065492258001 0.1160644361673204 0.1160604804021284 0.0336334037468869 0.9485906038296913 0.00791335705484247 -0.1088048667804541 -0.6171683342016143 -0.0203504262045369 -0.0203516059582104 0.3888366551663276 0.3004898331736353 -0.0203516436972952 -0.0203482907060602 -0.0203484430092814 -0.0203471684678792 -0.0203515073873732 -0.0203453975621417 -0.00166912239852727 0.00016076702091798924 0.1186097342732762 0.1353468517898316 0.0234886488269459 0.1105703385888605 0.1062936817682886 0.0409605112780502 -0.0203497957059401 -0.0109400338880141 0.1117886965563624 0.1160618563934481 1.339652642606338 0.55894123259182 -0.0803617397364777 0.0791386243281036 -0.0203529571179954 -0.020346848583145 -0.0203466167415549 -0.020352456921551 0.3017905382373039 0.1059218555851998 -0.0203538155965569 -0.0203490606958491 -0.0203477898126434 -0.0203496411787908 -0.0203508278228215 -0.0203457110241985 -0.00166883793608618 -0.00167082747070562 0.00809856654977858 0.0544973474348084 0.466572039127374 -0.0146012536312606 -0.0203525319044899 -0.02034969200198 -0.0203543434211022 0.0666086457475624 1.020223882310063 -1.07307403438432 0.0215264577554203 -0.00167058191946271 0.0105808453527275 0.0620794098431801 -0.0203495855288191 -0.0203476760159067 -0.0203484255833686 -0.0203461704481351 0.4769950728148046 0.231763261532578 -0.0203473760827225 -0.0203517428953014 -0.0203475087819039 -0.0203534633507395 -0.0203539458336161 -0.0203471534505881 -1.359034368078093 -1.304057497877736 -0.00167207232457657 -0.00166956083626914 0.6828770439966036 0.2619662082355111 0.28553610041206 -1.307221870708899 0.0563394171028137 0.1353506157766822 0.1353569208472633 0.0929684816119238 -0.00167107082732631 -0.00167078 -0.0203475197368164 -0.0203514782958145 -0.0203489961892458 -0.0203463883010334 -0.0203465321041537 -0.0203468819209696 0.8222892822977415 0.384695828013889 -0.0203421423400199 -0.0203515509958126 -0.0203476530957594 -0.0203470183680772 -0.0203528862614472 -0.0203487148729062 -0.9349316387445324 -1.189473496016787 -0.00166896203730009 -1.284433875174561 -0.6040199747868921 0.3016518219823972 -1.376071178322423 0.00931778864088021 0.1265514278641055 0.1353497386640888 0.1353509073864537 0.00199362252887383 -0.00166737287473253 -0.00167021449641104 0.6383321048637174 0.6377130638998209 -0.0203519806381191 -0.0203498059044145 -0.0203527653877143 -0.0203497011789143 0.4497797093286953 0.1649485670450948 -0.020349185524281 -0.0203537370454435 -0.0203502789934353 -0.0203526330999909 -0.0203471943792855 -0.0203454951034569 -0.0203459337879889 -0.0203514235747294 -0.4918634754348484 -0.00167333639194448 -0.00166832214260397 -0.00167323387222343 -0.00167007322301935 0.1186181349879253 0.1353522287218789 0.1353545341050312 0.058776463369411 -0.00166972192255479 -0.8393966614083156 -0.7787251620582696 0.8328753616846974 0.4567903322154627 -0.0203510607588204 -0.0203466832544946 -0.0203564386621469 -0.0203493296430894 0.1715771787297172 0.1243512031418111 -0.0203430619831698 -0.0203434213516257 -0.0203506742940257 -0.0203487922854867 -0.0203466223399718 -0.0203525013757501 -0.0203457074022852 -0.0203511290882991 -0.5803251110979953 -0.00167154598635513 -0.00167118090778091 -0.00167175288118392 0.0190869401655127 0.13535610301117 0.1353546656610308 0.1076284848154323 0.2409580650361005 -0.2849951341388613 -0.6511862643523186 -0.6423113840437976 0.731411935897934 -0.213314115524492 -0.0203497722242992 -0.0203511463599375 -0.0203528533972738 -0.0203486195605907 0.3617833655225445 0.134315554373754 0.0520340568670932 0.1141585379916691 0.1271586713349558 0.4244038941551064 -0.0203493091782069 -0.0203518058546284 -0.020346821516798 -0.0203462151769089 0.5569338199854522 0.511910844285838 -0.00166878367383141 0.0148131085249861 0.1344968450979281 0.1353534877614776 0.0917035347884347 0.9635150088395334 -0.0203502299561542 -0.0203484079898496 0.0158898414675886 -0.2358859370648392 -0.5451583431493955 -0.2460483030025552 -0.2132441548005561 -0.0669381252608841 0.4412958939196692 -0.2080789377762422 0.7407147302803788 0.465526217848583 0.6200746260860144 0.098319914631726 0.1769962967506468 0.1404801234034907 -0.020352799067202 -0.0203513837154463 -0.0203483126469959 0.4698941033933386 0.4083854931761182 0.6510067515480198 0.2376480791632489 -2.156282379044217 0.1353517431252061 -0.753086869684312 0.6474373892188939 -0.0203575067760462 -0.0203546903382629 -0.0203486893277645 -0.0345300740270768 -0.00166782860137258 -0.1442245243718634 -0.3557071766030233 -0.4119835500979242 -0.0307906357586093 -0.0203476405445799 -0.1560968286286893 0.3277991787019368 0.2125136898750288 0.3917264435610339 0.0276533120771436 0.2048843814032676 0.7051416514804681 0.5083084251906567 0.6246335813204669 0.4270446013845659 0.3469264079955888 0.2047854233493563 -0.0203439445121549 0.2960875899530119 0.2151920804853293 0.4467678851886478 0.5276984118173681 0.7765141476493136 0.0884817338259988 -0.3986116754964757 -0.248792225090334 -0.2121479046808288 -0.2951463425815256 -0.2879805660063618 -0.4464947900736426 -0.3404253669786236 -0.2363224692039091 -0.2112546060862808 -0.1865051423950851 0.3486259477961527 0.4204382713205557 0.6057747522582303 0.2972003083497854 0.4668948227390401 0.5705163478668956 0.7270013258717519 0.6248502665726319 0.3879111574586879 0.1503417026572318 -0.0203522710419507 -0.0203439797897644 0.0727138246593356 0.1269696682714872 -1.316876340768715 -0.5300422589325612 -0.0139909466145905 0.5450123647247636 0.1114433531117873 0.3979596726389776 -0.5021635713201701 -0.1351320200245399 -0.4288787108838792 -0.3202694107877643 -0.2475206833700489 -0.3150172389062347 -0.3241742158463796 -0.0892783108748031 0.2476507925842211 0.4491827901870576 0.5257917552427999 0.0977010092849367 0.7104604743160029 0.5714829476684586 0.2087888677365491 0.268431151960214 0.1545762106826777 0.3915596170043411 -0.0203492179193587 0.0299770265492598 0.4971231403671554 0.2633494599432186 -1.06905901038384 -1.048039786082301 0.1721439796528308 0.3084751169262119 -0.4354679752100838 -0.4890694784793597 -0.0521122670909377 -0.1215192493087548 -0.3603914627076865 -0.6019058124821542 -0.1235834516409325 0.021712958263461 -0.1300428416732686 -0.0886544800293012 0.4232230169367289 0.2145487565933331 -0.0593384058193295 0.4951272342127908 0.5443523509794435 0.6557602701375674 0.3066662008274247 0.3138648002278824 0.3005335923981599 0.2974017280620816 -0.0203454344309757 0.0281375676423576 0.4414186682951063 -0.5396553619771965 -1.075581707550865 -0.2531646381843043 0.2117389597219858 0.4950827108935161 -0.3257857422343765 -0.6522606236282124 -0.0732888165736301 -0.00166712751242834 -0.104132285166826 -0.310015778921689 0.0420906913012605 -0.0220972666014171 0.0731657030455388 -0.2100155096578782 0.593611695191077 0.5836983581143144 0.5005619180437846 0.4144783501625442 0.4217365351320184 0.7923755351099835 0.3853383815959004 0.256926120300305 0.2929179819465657 0.3912272303713921 0.1842279974213752 0.4676781239305602 0.6572111702075806 0.470011185687164 0.2857244009416244 0.6066320910854741 0.4658740995731417 0.7422351657156824 0.5047242189245464 0.5234269504240884 0.2070750957125586 0.4527176285850605 0.1213918625356264 0.67382617003745 0.6877154865019954 0.3817905429299914 0.5262563135524413 0.4665541600074943 0.5166581492949013 0.4867790365694649 0.3066667275615826 0.2585057279314747 0.2859932745831685 0.5900583704748374 0.2720312599747439 0.1696198125651924 0.5343493874253006 0.1846031310452381 0.186007284440149 0.4031899293246545 0.5189798612436948 0.7690142805021347 0.3735875059502856 0.459335968232727 0.4873288501665091 0.4250420441798061 0.4182782899112941 0.2776571017320775 0.5849773257560076 0.3600004128242902 0.4178434266549264 0.1860583797525403 0.8482160595670754 0.3369756590225997 0.5007573362209883 0.4039366228026915 0.2635339900272948 0.7521859635579624
-0.2756446082862619 -0.0382693572651688 -0.0382656505619557 -0.0382678786520319 -0.0382673858755216 -0.00313862174734566 -0.0031369561915776 -0.00313926159039685 -0.0031398272067238 -0.00313865101218461 -0.00314191501838357 -0.00314130829823648 -0.00313767400265707 -0.00313764604863506 -0.00313923511873212 0.0203419524394296 0.1609980603403873 0.2704156202874133 0.3264362607381848 0.9979912516890803 0.8615042174559043 0.7435073677778298 -0.0382584329897568 -0.0382634248738938 -0.0382649654641416 -0.038259867359387 -0.0382668619111563 0.2760032455403011 -0.0632075859900172 -0.0382689953387037 -0.0382655665904762 -0.0382572787447057 -0.0382661141090929 -0.00313735830720562 -0.00313993261209373 -0.00314040377719979 -0.00313404573360381 -0.00313759447050594 -0.00313658339512164 -0.00314021183834928 -0.00313523695685332 -0.00313881774417124 -0.00313802962883954 0.3696836579034577 0.2268254759744824 0.6172963776738535 -0.0382728689806565 0.469025841826788 0.3466154137272945 -0.0382689703037885 -0.0382586493975886 -0.0382708638043707 -0.0382628779729578 -0.0382583934793294 -0.0382640755550102 0.2306825379523946 0.554606285730161 -0.0382649881092923 -0.0382613470533444 -0.0382673866537472 -0.0382682452440796 -0.00313939289447295 -0.00314068019578484 -0.00313869728927729 -0.0031397140945772 -0.00313935172098886 -0.00313811535392515 -0.00313857036868269 -0.0031343486347722 -0.0382614263491764 -0.0382629954482019 -0.0382669133909263 -0.0382624629631923 -0.0382654667184558 -0.0382577957643982 1.000070748268427 0.330204054124834 0.4087437720263096 -0.0382664243672102 -0.0382623606691857 -0.0382611734891542 -0.0382572475550404 -0.038263138200073 0.5699802371420686 -0.139810320605478 -0.0382693986146666 -0.0382689133580507 -0.0382620128818901 -0.0382643515322491 -0.00314454589540534 -0.00313585741880938 -0.00313940808706717 -0.00313391320111787 -0.00314339518446961 -0.00313518337915964 -0.00314043374819787 -0.00313623687003934 -0.0382621903972014 -0.0382586221809105 -0.0382697005043588 -0.0382676304215454 -0.0382666611125316 -0.0382639750418192 0.8790612791839966 -0.0382720399841081 0.959078206962144 -0.0382656829779744 -0.0382638728793539 -0.0382687909480007 -0.0382597966973223 -0.0382654432299285 0.5523025824463439 0.8623694066790036 -0.00313567954357794 -0.0031371261980382 -0.00313853090756759 -0.00313584443618566 -0.00313840713310255 -0.00314063144536625 -0.00314166641979233 -0.00314228935391018 -0.00314006942797806 -0.00314319267190767 -0.00313996270782268 -0.00313961302231978 -0.2130686216463311 -0.2146493108509615 -0.0382659411328324 -0.0382665486471208 -0.0382625786757925 -0.0382666954771923 -0.0382580063128883 -0.0382642245727645 -0.0382593588649639 -0.0382594226131423 -0.0382624405275218 -0.0382632235890986 -0.0382660038481095 -0.0382650136134422 0.9449234289518355 0.6486517446001493 -0.00313631037387426 -0.00313710668000239 -0.00314117410537778 -0.00313885237212624 -0.00314180322104824 -0.00313726706270257 -0.00313869933109876 -0.00314056677903593 -0.00314410659307773 -0.00313750781740639 -0.00313863944295755 -0.00314180569023184 -0.9028066452207953 -0.5408400512370469 -0.0382637274327177 -0.0382628657210103 -0.0382646890428303 -0.0382666479397927 -0.038263939543546 -0.0382604442955337 -0.0382630235454833 -0.0382732680362382 -0.0382644774570461 -0.0382610201651189 -0.0382593529502945 -0.0382699105301034 0.4445213367264914 -0.1302943763094876 -0.0031426959271223 -0.00313909707382901 -0.00313980425545188 -0.00313988290057915 -0.00313833528107596 -0.00314101121771981 -0.00313798897320694 -0.00313867797878849 -0.725469568083291 -0.1753890673562633 -0.0124660759588363 0.7240281540422859 0.0977881895248466 0.798940203389727 -0.0382644206873606 -0.0377945326455758 0.0873628266290617 0.1482121218316137 -0.022860766668912 1.376108025095399 -0.9160142463613499 -0.6888134545783319 -0.0031402156216151 -0.0031391616634855 -0.0382662262382645 -0.038255568952685 0.4854933738566285 0.6538133991663904 -0.00313891814128194 -0.0031357669727966 -0.00314163608892969 -0.00313546753278413 -0.00313820253963374 -0.00314041111458656 -0.00313829260040331 -0.00313760855235252 -0.6586776627528066 -0.4731273540281892 0.3008648201460328 0.3661419448274284 0.0429247046866022 1.146724143399863 0.0942456006140552 0.2021822682406306 0.2182495910058592 0.2182530831105876 2.481271510579055 -0.3821464861976131 0.0852605701878104 0.0496675968580671 -0.0031361023572089 -0.00314249850749479 -0.0382786540371366 -0.038265878776543 0.4508424752390641 0.9611584115496978 -0.00314074209610285 -0.00313544108374618 -0.00314180142481992 -0.00314021647069662 -0.0382613574595164 -0.0382559948756035 -0.0382629558297936 -0.0382636230447045 -0.0382605429909505 -0.0382605524802349 1.583445658161233 0.1362614668447589 0.4617016040915883 0.1330078267400064 -0.0135042916254998 0.1302879114115211 2.207643390445043 1.379542300155334 -0.1676737664189881 0.2545216552886173 0.2545206081386032 0.2230476759359534 -0.0008413162304090404 -0.00314054 -0.0382656745993258 -0.0382638814171258 0.751294798982661 0.8220579811051002 -0.00313738401147311 -0.00313812902163013 -0.00313847462886764 -0.00313700272184351 -0.0382554385496382 -0.0382621093440807 -0.0382587188183298 -0.0382580103507279 -0.0382623570920236 -0.0382657389217608 0.9233690548801693 -0.975295737201066 0.2545230339126117 0.2545184574642255 0.2545188517919324 0.2545175398492735 0.2545219537955105 0.2545214265427675 0.2545267521071201 0.2545189848604633 0.2545202443566771 0.2545203832631893 -0.3727846751711237 0.5751851077231497 -0.0382640143028857 -0.0382636047219372 0.7513301332688735 0.7785714217854213 -0.00314148348456579 -0.00313798290294324 -0.00313934059833295 -0.00313782381299685 -0.0382660237307627 -0.0382672641485239 -0.0382637290962583 0.502879536581334 -0.0382599799938046 1.271040637643076 -0.4950334586499832 -2.217871770899669 0.2545270145846118 0.2545167358707727 0.116265671095524 0.0783722918423268 0.224195801900643 0.2545253174243486 0.2545166640841598 0.2545177938202692 0.254519072384276 0.2128606512485066 0.5532780570542915 0.3577406546650936 -0.038266709897131 -0.0382622713128712 0.2855532383237669 0.4882726694960404 -0.00314017349441967 -0.0031375667910057 -0.00314196947987975 -0.00313957358504693 -0.0382653259710417 -0.0382584720744231 0.728442484430691 1.492648264994479 0.3120355125035364 0.5638296476586347 -0.299735242809212 -2.26071509371799 -0.4091575970575721 3.244651912943763 0.0643999314739109 0.173475211501015 0.2182495508793054 0.2182456825153534 0.2182529270344763 0.2182499870560132 0.1378810035538586 -0.038264613549548 0.2332879259236994 0.3301633286918227 -0.0382665966908851 -0.0382673782497737 0.2788847447925182 0.574177709920716 -0.00313822557347185 0.9997614812807848 -0.0382609506365242 -0.0382649159396703 -0.0382713400243066 -0.0382626292611274 0.5454913700422381 1.071464877614986 -0.5658899700928853 -0.3741235688514613 0.2545260876851938 -0.156615016126702 0.0265086525172135 0.2102145078471723 0.2182508035469355 0.2182478509773246 0.2182503176606858 0.218248726993212 0.2182538317888703 0.1757746175214338 -0.037793028409405 -0.0382575340454544 -0.5367445827865512 -0.038265257832743 -0.0382640833558654 -0.0382605333828818 0.1058256137369824 0.3500985005803604 -0.8432958340606606 -0.0382639428095174 -0.0382652891435579 -0.0382611615324389 -0.0382715011024905 -0.0382637478879692 -0.1037080570636331 0.4412116081508554 0.2545208936522936 0.2545172891669558 -0.514881490074809 3.171693010796486 0.2182473091428081 0.2182512489629393 0.1975899228414573 0.0735836287177987 0.151668610365842 0.2182525520050672 0.2182462388749732 0.0632500127683873 1.871754781227385 0.4289738044969911 -1.006583003197586 -0.6922260047745091 -0.0382636629672292 -0.0382661700430536 0.3398877647100697 -0.0856736639684233 -0.0382693717827001 -0.0382643576112655 -0.0382631357209514 -0.038263382364272 -0.0382617068945481 -0.0382626505097185 -0.00313868367377523 0.0003033098061050767 0.2230422392499901 0.2545169530818295 0.2006357182430657 0.2079208951164927 0.1998809950317232 0.0770224208391148 -0.0382642956888854 -0.0205733099987745 0.2102138952841841 0.2182486519677893 0.4918814308188529 1.676953013266364 -0.0630241563921269 0.1261327649283545 -0.0382702938711957 -0.0382623182705515 -0.0382607208638369 -0.0382686055903869 0.7288277360117046 0.658469606134019 -0.038268801230783 -0.038265631785002 -0.0382613242497382 -0.0382652169545868 -0.0382643124608554 -0.0382591680923589 -0.00313832762811156 -0.00314072741667273 0.0152283666730541 0.1024848671989481 0.1155820320802996 -0.0274585321559597 -0.0382676221862156 -0.0382667222729674 -0.0382716022484719 0.125252038177715 1.001788469785197 -2.085807280526874 0.0404837725025823 -0.00314081937834583 -0.1395384346857318 -0.2746685654932041 -0.0382634676568202 -0.0382658198050123 -0.0382609942007089 -0.0382611834274623 0.2713482121801335 0.699019684555862 -0.0382636884208596 -0.0382686534488845 -0.0382639356677501 -0.0382694101042319 -0.0382670343031156 -0.0382640033140071 -1.353304783198154 -2.431441823554762 -0.00314160384270965 -0.00313950438414396 1.035093808972358 0.4894081286572792 0.4910877905526351 -2.241655995901784 0.105939356224186 0.2545186276767286 0.2545258294612462 0.1748245080125407 -0.00314079735396041 -0.00314125151850002 -0.0382615003136208 -0.0382627463017002 -0.0382635592172994 -0.0382625586167671 -0.0382634072306447 -0.0382634423021115 0.788370345119991 0.3760703844230458 -0.038258449757708 -0.0382667980815588 -0.0382624037072845 -0.038262187461801 -0.0382704995930326 -0.0382654340213813 -1.028845333989241 -2.073415026830333 -0.00313930314539769 -1.220261033255845 -1.094666422952322 0.3240259772937651 -2.328037791094978 0.0175239103537933 0.2379765561617527 0.2545227832598284 0.2545220802303966 0.00374902391135279 -0.00313770491683581 -0.0031391788148051 0.6122297916064183 0.6361033864536068 -0.0382682310840859 -0.0382657875872456 -0.0382656192829155 -0.0382668005159873 0.3028415976109219 0.6005316060539825 -0.038263183988927 -0.0382704032475801 -0.0382666663928048 -0.038270378368989 -0.0382638724887673 -0.0382608642536648 -0.0382585796276929 -0.0382636186054996 -0.7009087174010706 -0.00314339455809413 -0.00313866767684692 -0.00314280678940965 -0.0031388920369641 0.2230566017648839 0.2545216930563026 0.2545249039187822 0.1105285088165476 -0.00313943743540211 -1.176598243197379 -1.345664822078796 0.8154545136405809 0.4944325555678941 -0.038265124948464 -0.0382621275935781 -0.0382702996111152 -0.0382660527328955 0.1197691661098248 0.4644009298555288 -0.038256989405693 -0.0382593825952052 -0.0382679887094649 -0.0382656670626491 -0.0382611709353167 -0.038268086254778 -0.0382612570139856 -0.0382655835822753 -0.8767911062312421 -0.00314148385994014 -0.00314252583183529 -0.00314247123368181 0.0358916406258842 0.2545247702963027 0.2545238034032212 0.202386647933617 0.5772378517788387 -0.1908201911847842 -1.000341583954672 -0.5219969877822084 0.9168486078585962 -0.1568748378708849 -0.0382625470604995 -0.0382669720172981 -0.0382698943512812 -0.038263868801667 0.3029077129321352 0.7077183358620047 0.7674362620793665 0.8933966615897089 0.7336123288108146 0.3598206802171021 -0.0382612068003506 -0.0382682871204751 -0.0382614457411474 -0.0382622663800731 0.4889676263296823 0.5741841017736043 -0.00313902159251226 0.0278546455500897 0.2529120066093964 0.2545247708425143 0.1763300492271104 1.658588812192079 -0.0382668938404546 -0.0382624079458707 -0.170056073069178 -0.306945874968395 -0.1872544506642574 -0.4545170986069707 -0.2625163424265433 0.1777788154113257 0.5534451317501758 0.0743495401672047 0.4971976781085349 0.4417611021758976 0.6036595880238143 0.7665010379522091 0.1038307424145585 0.8113774993323138 -0.0382662003657403 -0.0382679218652386 -0.0382637974481776 0.6917545978853031 0.3799204307662018 0.3827212271307656 0.4159574739909707 -1.905311114208913 0.2545247662340643 -1.403396834526148 0.2401481841093957 -0.0382750275438598 -0.0382724594553483 -0.038263751082511 -0.508599697826644 -0.00313492886526504 0.0873664544195388 -0.4937904001850473 -0.3998646718994915 0.2577014645335257 -0.0382585539158846 -0.1556593765481889 0.8391600086338681 0.7721441630394332 0.4351145157775645 0.6554230270314066 0.2960001888246101 0.7196003995602662 0.541087701443283 0.7609546173681376 0.60011690400196 0.712943505796588 0.2704909990236436 -0.0382569536823408 0.4105764242998102 -0.1150681431444391 0.731933692520782 0.7371023615015228 0.7942218050136786 0.1502326014563361 -0.3514754807896999 -0.2662664211504534 -0.0659441518418546 -0.3830729056284659 -0.4958729970248329 -0.6072908073543549 -0.3844507107565797 -0.1930164658694246 -0.1141071192126828 0.00699442626470068 0.1561753966446387 0.2501447973570378 0.7074482732847676 0.4098237738706704 0.4318230867694033 0.4610037749758848 1.058326499453058 0.8890389617011711 0.4452234533561468 0.0614587216056085 -0.0382665273079698 -0.0382552994192209 0.1367335957356369 0.4781662270078689 -2.302141049381444 0.1257608040227492 -0.0263089955788388 0.6122862826735078 0.2259048144236761 0.3617470835037209 -0.5422414656719144 -0.1803619911673191 -0.3941562626888437 -0.4274348862604932 -0.2772316740310847 -0.3935365436561071 -0.2850018501064679 0.0741762224864403 0.1150739241933757 0.532900136421605 0.7053186931193693 0.579051675167121 0.7503958383764319 0.6373820363249855 0.089332977807912 0.2888049398901021 0.1965144718150147 0.0106726325150563 -0.0382649727550499 0.056367457353993 0.7137470741154996 0.8054956210924571 -2.663378248149441 -0.7709371115546547 0.2265343613682068 0.3292224105887818 -0.5121381292773386 -0.4549450856700837 0.1890090051070924 -0.1182225789318953 -0.465387992538792 -0.6001611038066008 -0.2619443730677875 -0.3871240595619872 0.00392670866201716 -0.036436103160419 0.1868371874976699 0.1380934613648826 0.8114942464621608 0.7327164337827652 0.4162444604684 0.7650022460552595 0.3909550772509215 0.4763440225191753 0.7319486357774762 0.4562268138752791 -0.0382601646279304 0.0529139148082847 0.6119442770882305 -0.4491294833032928 -0.9506499461029841 -0.6941348066193217 0.1757032890022615 0.6450367851711247 -0.3857801450733503 -1.014030332876293 -0.106633892037922 -0.00313622230667567 -0.1951664422078959 -0.634462722821226 -0.259300995648566 -0.0765097718317984 -0.2584509619076484 -0.3763414779447545 0.3639847056322598 0.2696119981564115 0.0850390520876225 0.2416171642707861 0.2376856323766761 0.6922446344617498 0.9199467323200762 0.7793510876106597 0.6209039520510558 0.1948990726594102 0.6121113046317745 0.1242758820184313 0.5386735401188127 0.2229462896053303 1.054516653313056 0.4775835714488946 0.5393815458648096 0.6311675776538497 0.8466902429654531 0.2838566838670017 0.6722117274367989 0.2044992630158068 0.7115170651079171 0.3139182976484532 0.5392545161692291 1.063182115417808 0.4942928535075259 0.4504073988444249 0.5251813508198832 0.2672751102929049 0.9228787039602824 0.5981129539212082 0.2124675738326325 0.5211026996901468 0.7319830114354121 0.7880083057965344 0.4732379644044903 0.5481564131897444 0.4992557698105182 0.1717115196927817 0.3987842635275997 0.8498499950410533 0.8963795843158018 0.3997034842546922 0.0961988307567912 0.1772157032281771 0.2231024998713065 0.591906533626288 0.532658055490621 0.9096482763203214 0.2151008455888984 0.8170577762742048 0.8128303935759452 0.3613046358092947 1.003980428622094 0.4530017043562088 0.9097027519217339 0.6325874297279972
